6346 50
A0017252 2.81958 0.953847 1.1159 2.66075 -0.34804 1.9985 1.27341 1.51575 -0.632577 -0.0628739 -1.40789 -2.8961 -2.95438 -0.847775 -0.385943 -1.0239 1.97024 0.333765 0.223657 -3.73378 -3.49266 2.66037 0.5931 0.611911 -2.20612 -1.90247 -2.54075 1.47458 1.08829 -0.777741 0.619999 -3.17266 -0.754172 -1.67993 -1.754 -0.173677 2.79868 -0.572109 0.0147492 -2.41017 -0.631175 1.69095 -3.12209 -3.16862 -3.37814 1.00467 1.35458 -0.307764 0.979336 0.334771
A31643165 0.92157 -0.261961 0.594706 0.452796 0.100521 0.105052 0.294268 0.366237 0.185285 -0.810662 -0.233988 0.276645 0.172772 0.443677 0.0948207 -0.410229 0.756428 0.196595 0.018411 0.477076 -0.0938285 0.123829 0.456589 0.0657672 0.501578 -0.103172 0.255572 0.0226453 -0.804501 0.0168192 -0.207781 -0.315359 0.492984 0.757446 -0.422667 0.17871 -0.624688 -0.322105 -0.296893 -0.403203 0.255926 0.0544188 0.660851 0.306075 -0.973391 0.847395 -0.335825 -0.184165 -0.283875 -0.091291
A4345940 -0.0902718 0.228632 0.237722 -0.866275 -1.12006 1.03292 0.339466 -0.718993 0.348935 1.26909 -0.369118 -0.00313601 0.38923 0.932872 0.431381 -0.319866 -0.239696 0.628654 -0.538345 0.29334 0.213646 0.192211 1.17581 1.33089 -0.343086 -0.1218 -0.0950623 -1.04648 -0.366002 0.524247 -0.204824 -0.763909 0.119738 0.102118 0.391608 0.0571535 0.537131 0.155129 0.550921 0.492157 -0.362929 -0.207214 0.0857938 0.0316459 -0.284013 -0.134798 -0.191836 -0.459226 0.544964 0.417911
A7572078 0.324048 0.121047 0.109975 0.322452 0.445706 -0.0417001 0.397196 -0.386804 0.388188 0.539379 -0.525377 -0.427119 -0.138018 0.0205015 0.237488 -0.0365488 0.333583 -0.215529 -0.621889 -0.259523 -0.026314 -0.706412 0.487312 1.34745 0.0737135 0.332057 -0.0577294 0.255546 0.085375 0.377745 -0.24321 -0.35902 0.619881 -0.715279 0.0999024 0.143102 0.107945 0.111705 -0.40911 0.020761 1.0906 0.311483 0.444978 -0.484426 -0.0491254 -0.973331 -0.0157301 -0.344527 -0.501204 -0.713209
A0016795 0.66973 -0.287699 -0.366531 0.175778 -0.173846 -0.460853 0.228633 0.518536 0.429698 0.693687 -0.658742 0.164062 0.0117774 -0.667612 0.0164539 0.419069 0.612025 -0.277681 -0.0723209 -0.332576 -0.279015 0.536703 -0.0448364 -0.366236 -0.198695 -0.533348 -0.528851 0.117249 -0.238256 0.317322 0.105646 -0.966118 -0.640575 -0.429449 -0.596598 0.127291 -0.033742 0.659122 0.472345 0.369447 0.408433 -0.293114 -0.260432 0.401518 -0.0680428 -0.622114 0.0588729 0.151264 -0.0332264 -0.610284
A0030273 -0.212037 0.416257 0.143188 0.349825 0.460939 0.620572 0.0354352 0.948975 1.14693 0.280468 -0.558137 -1.1372 0.517379 -0.0268403 -0.173367 0.197257 0.391392 -0.364924 0.0307903 0.73763 0.144982 -0.268741 0.0558231 -0.711759 0.839701 0.103143 -0.350999 0.26316 -0.397526 0.252917 -0.902558 -0.302696 0.425833 0.213569 0.128019 -1.1668 -0.635058 -0.442786 -0.389812 -0.204207 0.0972749 -0.164275 0.240832 -0.0330178 -0.464577 -0.2841 0.468553 -0.607604 -0.397926 -0.167356
A0016936 0.11631 -0.471564 -0.184118 0.0727679 0.360244 -0.084104 1.02224 0.421751 0.13646 0.331059 0.0287179 -0.551951 0.541942 0.568646 0.188979 0.455041 -0.271214 -0.936011 -0.277275 -0.88151 -0.177792 -0.177186 -0.807865 -0.377846 -0.743063 0.148188 -0.131125 -0.531342 0.194295 -0.0759543 0.529284 -1.09533 0.00568117 0.305761 -0.723593 -0.306693 0.913727 0.288579 0.779277 0.465023 0.283734 0.289775 -0.0370937 -0.195114 -0.31444 0.273555 -0.10895 0.321024 -0.64972 -0.349643
A28396098 -0.00355442 0.604254 1.12964 0.839957 0.240779 0.116797 0.129829 0.990396 0.785736 -0.449166 -0.356958 -0.347732 1.00949 0.344611 -0.0127561 -0.153561 0.36385 0.197964 -0.230948 0.28007 -0.0895755 -0.305535 0.577269 0.710721 -0.515783 -0.402083 -0.8484 0.0728937 0.401822 0.359 -0.119422 0.128337 -0.531876 -0.849536 -0.573673 -0.766515 0.380257 0.239156 -0.292031 0.108804 0.300117 -0.356525 0.760955 -0.0173197 0.298954 0.105756 -0.242254 0.152692 -0.322393 -0.525825
A31629899 0.359057 0.304259 -0.0364318 0.697427 0.0633204 1.51941 0.592063 -0.144797 0.901375 0.124324 0.409902 -0.429768 0.954148 0.37994 0.19799 -0.415612 0.208871 1.33053 -0.0948739 0.324154 -0.0139652 -0.393752 0.210878 -0.404336 -0.00352984 0.0187935 0.128546 0.167342 -0.113027 0.481895 -0.52432 0.0545342 0.0610707 0.831827 -0.123984 0.563857 -0.393359 -1.71126 0.0724374 -0.873195 0.0738914 -0.906149 -0.505075 -0.0869341 -0.359701 -0.0216902 0.167265 0.416458 -0.348667 -0.841559
A11572245 -0.620231 0.270906 0.238284 -1.02838 -0.939654 0.63616 0.00842282 -0.59333 -0.274494 0.346754 -0.272378 -0.179656 0.513137 -0.304431 0.344627 -0.130353 -0.361196 -0.649732 0.334728 -0.383093 0.0807714 -0.19395 1.35348 0.433209 0.191281 1.11016 -0.0427774 -1.65835 -1.04947 1.61787 0.00965558 -0.93794 0.103917 -0.991967 0.226116 -0.376703 0.0243126 -0.863888 -0.562202 0.340968 -0.586101 -0.205778 -0.478258 -0.360182 -0.134504 0.179191 -0.0102326 -0.0261654 -0.296784 0.0532147
A0017569 0.629162 -0.215295 -0.101159 -0.153407 -0.143383 0.656705 -0.12477 0.395641 0.49245 0.212885 -0.203745 0.425317 0.100431 0.380105 0.592793 -0.350299 0.224301 -1.10215 -1.00122 0.0470349 -0.238129 0.398624 -0.396723 -0.292654 -0.285592 -0.584746 -0.0811125 0.734434 -0.352849 0.536121 0.941299 -0.615269 -0.677122 -0.0895046 0.134627 0.0637016 -0.208323 0.656766 0.109867 0.627063 -0.109694 -1.01683 0.238321 -0.031966 -0.392309 -0.681906 0.0955382 0.194947 -0.114005 -1.02992
A0016592 0.717106 -0.666612 -0.628455 0.114243 0.201526 0.177121 0.71136 0.207619 0.712951 0.534749 -0.3475 -0.353467 0.0890278 0.208329 0.305031 0.0491861 -0.0856167 -0.113622 -0.260886 -0.155935 -0.182629 0.67005 -0.768355 -0.672842 -0.280471 -0.0774594 -0.375729 -0.395619 0.260451 -0.146664 0.770056 -1.30324 -0.323447 0.104575 -0.218236 -0.206181 0.526138 0.573435 0.608175 0.81961 0.259186 -0.15154 0.273676 0.395339 -0.530181 0.0267075 0.0808424 0.584267 -0.622132 -0.431445
A31643235 -0.789043 0.234957 1.70183 -0.955154 -0.125509 -0.35727 0.54149 0.804709 1.17703 0.670261 0.145996 -0.375184 0.172595 0.58558 -0.368022 -0.254618 0.998455 -1.26394 0.338108 0.32259 -0.440888 -0.808849 -0.712454 -0.192941 0.212769 -0.0632443 0.367719 -0.463764 -0.340192 0.257062 -0.0850562 -1.25178 0.736256 0.868692 -0.620533 0.370549 -0.156224 -0.0529486 -0.200374 -0.172341 0.50402 -0.852226 0.719173 0.658947 -0.533669 -0.138309 0.0190495 0.199252 -0.272898 -0.534076
A31697167 0.576758 -0.298364 1.01183 0.439005 -0.159006 -0.00480278 0.0835744 0.248657 -0.327207 -0.606157 -0.703103 0.145132 0.353746 0.627566 0.403985 -0.326281 1.1123 -0.3667 -0.316462 0.271756 -0.0225295 -0.248313 0.555022 0.559662 0.597111 -0.492844 0.207179 -0.698612 -0.380793 0.101008 -0.339589 0.549862 0.179166 0.673978 0.0735746 -0.105244 -0.788001 -0.663773 0.0981601 -0.0807045 0.321071 0.205782 0.711755 0.118773 -0.790853 0.948968 -0.377108 0.0738333 -0.128458 -0.432072
A0096513 0.449311 0.434003 -0.436666 -0.00978509 -0.7143 0.494697 0.576455 0.972237 1.47006 0.635804 -0.356929 0.376847 -1.14458 0.892036 0.307815 -0.0371433 0.242553 0.0934899 0.11032 -0.00226975 0.492106 -0.0886771 -0.293782 -0.615871 -0.449781 -0.267017 -0.533752 0.0119512 -0.403595 0.27719 0.94479 -0.640026 0.220223 -0.319573 -0.527668 0.0995138 -0.0872924 0.226982 -0.31329 0.797932 -0.171785 -0.39129 0.739823 -0.879898 0.0621237 -0.439568 -0.0909954 1.21866 0.122538 -0.482817
A2793761 0.357875 -0.409745 -0.114696 -0.481367 -0.648344 0.285261 0.148924 0.504473 -0.106863 0.341128 -0.562328 0.676518 -0.0495371 0.151629 0.33878 -0.392806 0.335471 -1.49421 -0.801521 -0.609559 0.490382 0.00322589 -0.117816 -0.156849 0.310697 -0.527427 0.189952 0.806164 -0.0362054 0.166571 0.667818 -0.982805 -0.197541 -0.212557 -0.759733 -0.212252 -0.405685 -0.360098 0.121366 0.849534 0.14372 -0.534926 0.292403 -0.80246 -0.0321403 -0.275722 0.255031 1.19191 -0.664519 -0.815013
A7572086 0.409386 0.38382 -0.0525288 0.124397 -0.354107 0.387989 0.33183 0.416577 0.174233 0.0514848 0.414937 -0.56902 -0.972742 0.264376 0.199713 -0.292983 0.761922 0.289899 -1.29203 -0.585423 -1.18877 -0.377712 0.624992 1.0409 -0.0109891 0.286955 -0.154323 -0.629546 -0.287639 -0.0333225 0.394867 -0.860475 0.223833 -0.403659 -0.366273 -0.101317 -0.390853 0.244066 -0.439777 1.22079 1.2246 0.655538 0.562801 -0.0800524 0.128632 -0.287718 0.291106 -1.14848 -0.773575 -1.41243
A18243787 0.957155 0.714717 -0.133326 1.07061 -0.114847 -0.0241472 0.108615 1.5714 0.148261 0.754223 0.120203 -0.293214 0.989047 0.19736 1.47581 -0.110172 1.69548 -0.386465 0.1452 -0.786203 0.817438 -0.730936 0.0622428 0.150125 -0.336587 0.443511 -1.04124 0.00940467 -0.141376 -0.113722 0.170006 -0.186656 0.172606 0.63895 -0.324812 -0.55045 -0.350364 -0.488091 0.059932 0.444918 -0.0960781 0.774082 0.352746 0.186054 -0.599237 0.265627 -0.0426055 0.0570485 -0.225209 -0.775542
A18360678 -0.180434 -0.226155 0.496451 -0.153655 0.264372 0.823454 0.535621 0.563055 -0.133572 -0.0333771 -0.65755 -1.04946 0.873263 0.233044 -0.0195024 -0.143986 1.07804 -0.805472 -0.0771599 -1.60109 0.751713 -0.405293 -0.537856 0.214744 0.0484879 0.350422 -0.544854 -0.719095 0.453988 0.266124 0.836801 -0.837914 0.0201556 -0.427187 -0.0574709 -0.0142741 -0.3246 0.961856 -0.150114 -0.0632611 -0.208292 0.838951 -0.459689 -0.00938804 0.199278 -0.483426 -0.959183 1.82808 -0.972846 0.435354
A18129378 0.185054 -0.519601 1.37809 0.53309 -1.0746 0.155658 0.326459 0.65753 0.220314 0.529295 -0.771653 -0.911541 0.416422 -0.522856 1.35177 -0.10304 0.632801 -0.0571631 -0.400661 0.010934 -0.0156977 -0.302839 1.67364 0.10781 0.0182261 0.184609 -0.0338508 -0.838355 -0.958958 0.223404 0.168059 0.448407 0.0753564 0.917317 -0.724366 -1.21103 -0.107281 0.383624 0.400535 0.721387 0.286093 1.22885 0.214803 -0.892035 -0.402406 -0.763173 -1.07253 -0.2394 -0.516884 -0.232206
A12794052 1.00606 0.543088 0.400978 0.298777 -0.27443 0.958494 0.279475 0.689199 0.962843 0.226053 0.367375 -0.60795 -0.547634 0.598036 -0.545253 -0.0447489 0.602121 0.726473 -1.45989 -0.734675 -0.782451 -0.8245 1.42535 1.68711 -0.300319 -0.0407735 -0.276779 -1.19899 0.0488172 0.146407 0.354749 -1.36715 0.28875 -0.492169 -0.0044958 -0.352323 -0.301878 -1.16707 -0.173436 1.48911 0.980993 1.01757 0.583336 -0.282153 0.261517 -0.460719 0.173086 -1.27681 -1.20618 -1.67829
A2883946 0.975674 0.36766 0.34677 0.627749 0.116673 0.949296 0.494544 0.478133 0.248836 -0.915265 0.273605 -0.0882122 -1.0269 1.20699 0.445904 -0.0177622 2.02279 -0.910826 0.371983 -0.766877 -1.05917 0.443498 1.00388 -0.539551 -0.69418 -0.392709 -0.0351741 0.393979 0.0393311 0.825009 0.693574 -0.463888 0.428279 0.165396 -0.0892177 -1.15686 -0.319303 0.559316 0.049283 0.143939 0.477476 0.573179 0.430001 0.396876 0.56187 -0.71009 -0.531161 0.489421 -0.0753787 -0.149858
A0017601 0.536381 -0.369751 0.233489 0.39687 0.289662 0.756169 0.381678 0.355319 -0.388094 -0.244211 0.191952 -0.180614 0.423211 1.00602 -0.0523048 -1.15761 1.38008 0.699409 -0.190173 0.326848 -0.516661 0.145193 0.975977 0.224407 -0.465661 0.364025 -0.589165 -0.0680495 0.481219 -0.271876 0.278997 -0.29334 -0.11038 -0.518996 -0.152731 0.628283 0.527095 0.134051 -0.410034 -1.11114 0.293961 0.13469 0.800969 0.338061 0.537104 -0.113613 0.378257 1.20792 -1.34322 -0.208383
A0085139 0.168471 0.354152 0.931282 0.699952 -0.486896 0.301831 0.159637 0.788046 -0.16068 -0.617324 0.267536 -0.202902 0.442853 0.995037 -0.176671 -0.172924 1.3408 1.13424 0.189465 -0.0743062 -0.447555 -0.3267 -0.51367 -0.233565 -0.314565 0.989942 -1.20401 -0.0947201 0.169972 -0.399974 -0.470062 -0.908358 -0.848087 -0.389013 -0.924161 -1.08353 -0.111781 0.848747 0.0223239 -0.529823 0.720881 -0.30315 0.642014 0.471089 0.317687 0.292258 0.192941 0.149599 -0.189243 -0.198289
A23525264 -0.266997 -0.125056 0.305068 -0.213126 0.204809 0.784515 0.541999 0.579325 0.0168719 -0.0861782 -0.59904 -0.973913 0.828058 0.264507 0.119378 -0.366226 1.03648 -0.781106 0.217189 -1.4699 0.782102 -0.312215 -0.323954 0.205283 -0.121375 0.500164 -0.373186 -0.589449 0.464698 0.0150778 0.59056 -0.805346 -0.12899 -0.422439 0.0325147 0.169183 -0.207814 0.875567 0.0489212 -0.16883 0.0737161 0.792188 -0.414519 0.1683 0.158022 -0.641514 -0.895944 1.56881 -0.733979 0.531471
A0016587 1.14951 -0.830471 0.0220246 0.267392 -0.214066 -0.511132 0.198367 0.261415 -0.0687607 0.553637 0.30214 -0.676325 0.938496 0.736115 1.02128 0.677336 0.121436 0.786362 0.426528 -0.262014 -0.10359 0.88428 0.72412 -0.0390997 -0.50834 -0.802572 -0.727221 -0.0945651 0.0285883 -0.414734 -0.477059 -1.31487 0.4067 -0.84498 -0.409927 -0.0809973 -0.638759 -0.0122447 0.21911 0.112224 0.578581 -0.152336 -0.287293 1.93638 -0.522745 0.623876 -0.943525 1.34235 -0.228242 -0.635483
A30220778 1.11426 0.559599 -0.072641 0.646837 -0.0363097 1.85933 0.449583 0.101939 0.261826 -0.397807 -0.629305 0.0245156 -0.890851 1.40679 0.26213 -0.262453 1.45781 -0.0681096 0.124857 -0.735087 -0.82376 -0.1092 1.15156 -0.325348 -0.845988 0.152875 -0.393808 0.594281 0.254294 0.182408 0.71467 -0.821618 -0.242476 0.113238 -0.147429 -0.485573 -0.278369 0.672711 -0.492088 -0.33378 0.455727 -0.224065 0.531343 0.74556 0.295972 -0.428636 0.0117853 0.200724 0.633132 0.281449
A5901321 0.496317 0.212353 0.383885 0.803414 -0.0710206 0.205218 0.9271 0.0132417 0.0635303 0.763767 0.803024 -0.769242 0.621895 -0.010369 -0.259323 -0.155906 1.34021 -1.13447 -0.300403 0.681249 -0.582156 0.05451 0.0915146 0.299471 0.242321 1.55144 -0.65708 -0.417854 -0.511286 -0.428598 1.61181 0.266106 0.24915 -0.0925622 -0.77683 0.330474 -0.460846 0.0722889 -0.359644 0.394788 1.22726 -0.627594 0.378406 0.804142 -0.104384 0.708893 0.309568 0.640875 -0.354396 0.937006
A18534629 -0.152281 0.458169 0.9921 -0.524832 -0.0783892 -0.122445 0.685238 0.0363914 0.51688 1.30804 0.443484 -0.0758554 -0.231289 0.888533 -0.300569 -0.631295 -0.0301156 -0.0579481 0.311973 0.651964 -0.565305 -0.797683 0.296874 -0.335616 -0.051315 -0.67257 0.0182854 0.0581602 0.276289 0.855038 -0.319218 -0.802771 1.0801 0.969024 -0.867605 0.212315 -1.05246 0.130313 -0.21355 -0.0121694 0.515547 -0.903103 0.299068 1.38847 -0.0852037 0.507189 -0.653626 0.905141 0.0594726 -0.352045
A18083728 -0.699807 0.402247 0.231513 0.68312 0.165692 0.588577 0.784042 0.119749 -0.35539 0.679499 -0.751864 0.161241 0.921531 0.810841 0.153725 -0.312812 1.11102 -0.323542 -0.366642 -0.322983 0.693037 -0.851311 0.0245026 -0.277024 1.24823 0.0887483 0.915603 -0.212219 -0.526253 0.357494 -0.828137 -0.467151 1.1635 0.766052 0.226544 0.230042 0.0670613 -0.4668 -0.877702 0.118545 0.910892 -1.00569 0.0183613 0.105721 -0.907635 0.672166 -0.482537 0.600903 -0.653041 0.191474
A2883933 -0.369268 0.649444 0.531896 -0.746792 -0.637079 0.0786884 -0.050614 -0.604043 -0.787915 0.981874 -0.964019 -0.533893 1.16698 1.22666 0.954364 -0.00836186 0.872308 0.0203874 -0.727888 0.594861 -1.16515 -0.683851 0.454228 -0.724141 -0.970266 0.662592 -0.340975 -0.0852981 0.0467821 0.0685706 1.15018 -0.726057 -0.394723 -0.97977 -0.100529 0.415536 0.647375 -0.522078 -0.267642 0.72772 -0.0032897 0.220373 0.242782 0.202983 -0.342292 -0.587201 -0.725101 -0.289989 -0.238602 0.840631
A23509560 0.124043 -0.354719 1.08654 0.474542 -1.04007 0.078864 0.303893 0.352688 0.335177 0.452398 -0.670631 -1.07236 0.251602 -0.767017 1.47538 0.00908254 0.607362 -0.142267 -0.1732 0.0910461 -0.0691714 -0.335205 1.53671 0.24891 -0.07956 0.0320287 0.0308489 -0.587938 -0.874085 0.0874377 0.0859269 0.236563 0.144409 0.746537 -0.690024 -1.1437 -0.167536 0.320518 0.414363 0.756119 0.207953 0.977709 0.277967 -0.831724 -0.438831 -0.987647 -0.879787 -0.125083 -0.511529 -0.348263
A2922826 0.278468 0.318941 0.27843 0.1421 -0.656605 1.04452 1.05967 -0.0276524 0.291765 -0.867046 -0.443654 0.0203502 -0.976842 1.4218 0.28355 0.347188 1.6577 -0.425702 0.137139 -0.509641 -0.292681 0.344906 1.52042 -0.215713 -0.358885 0.0948948 -0.00634425 0.676249 0.696116 0.725658 0.224206 -0.703901 0.0271715 0.106334 -0.306374 -0.64382 -0.338998 0.423401 0.106865 0.0828523 0.464058 0.0113495 0.517524 1.2739 0.838776 0.101221 0.659661 0.586738 0.280684 0.379318
A18359748 0.659422 -0.355004 -0.162943 0.323104 0.461804 0.253609 0.305483 0.994434 -0.215004 0.129994 0.577164 0.12989 0.221551 0.656881 -0.350754 -0.0108255 0.0103662 -0.185373 -0.263451 -0.422546 0.375493 1.00502 0.479343 -0.628619 -0.176176 -0.478247 0.06932 -0.529323 0.501719 0.487033 -0.259034 -0.478212 -0.167408 0.172047 -0.319885 0.0701711 0.184086 -0.421563 0.217805 0.98865 2.23802 -1.09926 1.56858 0.573418 -1.58342 -0.341075 0.562355 -0.423844 0.0370973 -0.649245
A5900554 -0.315944 0.344882 0.3902 -0.515384 -1.12272 0.414503 0.688111 1.49375 0.373721 0.0354306 0.545533 -0.0829668 0.0934662 1.28201 0.468989 0.0242385 0.443127 -0.427488 -0.484992 -1.48781 -0.127214 -0.0373563 1.26217 0.269324 -1.16721 0.812726 -0.243636 0.204492 -1.05667 -0.0412536 0.721006 -0.198631 0.443796 -0.423901 0.69527 0.73236 0.611337 0.339785 0.548101 -1.28663 0.149543 -0.418271 -0.326197 -0.187467 -1.02292 0.55234 1.36455 1.21829 0.756722 -0.313324
A5167052 0.0922339 0.178573 0.553407 0.325202 -0.115238 0.102227 0.401614 0.0888907 0.123318 0.94731 0.373774 -0.0290976 1.191 0.311431 -0.893375 -0.0522945 1.30897 -0.599276 -0.455131 0.424324 -0.598782 -0.265562 -0.141511 -0.245119 -0.148618 0.981862 0.108791 -0.418795 -0.802759 -0.289977 1.76989 0.217739 -0.0919086 0.155355 -0.0411745 0.899151 -0.379309 -0.141559 0.45424 0.488196 0.338233 -0.845721 0.808415 0.121793 -0.397915 -0.0508626 0.673047 0.238315 -0.751953 1.1709
A30195844 -0.611109 0.624874 0.435306 -0.726848 -0.944884 0.24908 -0.278663 -0.774823 -0.793854 1.03548 -1.16835 -0.497034 1.52111 1.16981 1.03044 -0.229971 0.724242 0.214366 -0.601111 0.572218 -0.990943 -0.853579 0.435517 -0.918802 -1.21278 0.903499 -0.226586 -0.155871 0.10676 -0.0987729 1.19024 -0.807278 -0.450196 -1.22752 0.0669002 0.398516 0.444478 -0.304294 -0.165454 1.00073 -0.0710027 0.49648 0.466885 0.0586088 -0.562285 -0.49687 -0.700329 -0.343919 -0.266741 0.667406
A6311917 0.0696889 -0.527862 0.782316 0.224607 -0.717953 -0.00445682 1.31677 0.260735 0.30159 0.722574 0.411326 -0.0274106 0.221931 0.45702 -0.626777 -0.804725 1.46906 -0.588872 -0.260866 0.418578 -0.8456 -0.190827 -0.489062 -0.678388 0.505128 1.64236 0.335105 -0.00107351 -0.379307 0.0625997 0.853556 0.174245 -0.353302 0.360439 0.311575 0.613106 -1.16217 0.284717 -0.246271 0.598552 1.09912 -0.794755 1.20013 0.209108 -0.450898 0.0940219 1.0634 0.321217 -0.455029 0.849385
A31762929 -0.350572 0.438124 1.3448 -1.23272 0.132309 -0.109574 0.711626 -0.204618 0.168824 1.2788 0.135196 -0.630319 -0.160018 0.539528 -0.264456 -0.510258 0.708007 -0.292496 0.959559 0.420497 -0.540568 -0.354421 -0.527354 -0.319246 -0.431305 -0.869925 0.35656 -0.416493 -0.25965 0.869315 0.187231 -1.03169 0.487744 1.19913 -0.941558 -0.414603 -1.21559 -0.14011 0.17234 0.364623 0.791802 -1.04075 1.19337 0.871865 0.6408 -0.0840817 0.351287 0.274666 0.903952 -1.21722
A18243505 1.07992 0.730183 0.191492 -0.328581 -0.641336 0.143559 -0.333044 0.582846 -1.01452 -0.628621 -0.109713 -0.954523 -0.131968 0.516887 -0.627514 -0.0303364 -0.732817 0.450495 -0.720469 0.403409 -0.32648 1.26871 0.577488 -0.681852 -0.12221 0.64199 -0.0999155 -0.946372 -0.409724 -0.318723 0.185344 -1.4699 0.434026 -0.929734 -0.620408 0.0214067 -0.42941 -0.405761 -0.278609 0.57939 1.9914 -0.0196975 1.83552 0.399893 -0.222287 -0.625573 1.95373 -0.637659 0.563696 -0.11756
A0017145 -0.211473 0.629312 0.962715 0.0930484 -0.0389981 -0.313119 -0.316156 0.776395 0.0413064 -0.695125 0.276765 0.112763 -0.0770405 1.22608 -0.507309 0.708782 1.24567 0.217987 0.5612 0.288203 -0.690349 0.481971 -0.744628 -0.288675 0.0711696 0.396977 -1.01265 -0.573467 0.0816743 0.71526 -0.269888 -1.11625 -0.816756 -1.13814 -0.621584 -1.23494 -1.02208 1.09344 -0.306728 0.413055 -0.529673 -0.818868 0.975239 -0.0465742 0.354341 -0.323084 0.275205 0.167481 0.085613 -0.806019
A0016844 -0.0914413 -1.41072 -0.743934 0.0993811 -0.0608771 -0.534801 -0.00117277 0.293418 0.657485 -1.00731 -0.257453 -0.472788 -0.737975 0.741793 0.654576 0.2142 0.128331 -0.612058 -0.203157 0.602874 0.0294993 1.06397 0.226245 -0.335723 -0.3586 -0.0438811 -0.617919 -0.205245 -0.902313 -0.341154 0.743368 -1.38716 -0.193204 0.137716 -0.49236 -0.565442 -0.540349 0.417705 0.574465 -0.00660926 0.399567 -1.22774 0.17912 -0.265754 0.0315282 -0.793588 -0.782512 0.488944 -0.0277434 -0.759707
A24374880 0.186847 0.2185 -0.292385 -0.0631897 -0.226217 0.54424 0.416403 -0.145001 0.0081007 0.383882 -0.199382 -0.295028 -0.597236 -0.0231622 0.0314639 -0.392588 0.518139 0.0287003 -0.967174 -0.181289 -0.614235 -0.408086 -0.150842 0.381529 -0.0102467 0.405512 0.111227 0.0281327 -0.458356 -0.0734526 -0.139379 -0.415627 0.526643 -0.524251 -0.723114 0.169368 -0.182967 0.863496 -0.80047 0.411576 1.00804 0.0358635 0.0745755 -0.273098 0.226857 -0.359276 -0.0415368 -0.561898 -0.365361 -0.818309
A23507754 0.537005 -0.442489 -0.163899 0.580411 0.704455 -0.139058 0.408485 1.10355 -0.120948 0.0653343 0.304411 0.0914769 0.205733 0.940885 -0.288472 -0.0272198 0.101381 0.0341278 -0.257099 -0.529997 0.579472 0.885804 0.21202 -0.770484 -0.168957 -0.793927 -0.146063 -0.4995 0.533422 0.669063 0.35852 -0.104854 -0.360786 0.46746 -0.787024 0.049803 0.150009 0.0342108 0.683515 1.39668 2.39939 -1.148 1.1509 0.769408 -1.47529 0.0123701 0.240473 -0.467313 -0.350365 -0.931844
A32336125 -0.362405 0.784972 0.318565 0.0594968 -0.755011 0.552855 0.679556 -0.518849 0.545888 0.34844 -0.427244 -0.194935 -0.0389556 0.439894 0.126919 0.233389 0.445686 -0.163946 -0.304122 -0.367078 0.538095 -0.638947 0.18925 -0.338281 -0.714321 0.788844 -0.404451 -0.72411 0.158797 1.42944 1.17981 -0.945467 -0.617255 0.833211 0.461884 0.251901 -0.735752 -0.115815 0.71357 -0.792451 -0.496023 -0.775169 -1.06085 -0.959654 -0.573498 0.602275 0.6857 0.359413 -0.289875 -1.15186
A0051521 -0.106177 0.316263 1.62487 -0.741977 0.13202 -0.462715 0.67644 0.144201 0.610152 1.0404 0.104193 -0.0516786 -0.213405 0.60652 -0.161875 -0.343499 0.55148 -0.664585 0.359968 0.56516 -0.368844 -0.515955 -0.156182 -0.0660749 -0.50135 -0.58092 0.392181 -0.641138 -0.137879 0.569103 0.151394 -0.950507 0.74468 0.956361 -0.436475 0.0707288 -1.04812 -0.154344 0.0649826 0.243453 0.519258 -0.840094 0.708243 0.538057 0.106574 0.254777 -0.11834 0.29598 0.382792 -0.775302
A0017282 -0.478349 0.470311 1.14056 -0.0864564 0.405595 1.23576 0.42093 -0.415469 -0.9655 -0.135602 -0.273758 -0.398118 0.917791 0.296876 -0.589745 -0.0126944 0.722165 -1.17067 -0.55876 -1.43748 0.129538 0.153001 -0.0977332 0.244094 -0.453037 0.58112 -0.52356 -0.403828 0.298263 0.432568 1.43773 0.00424879 -0.252118 -0.13403 0.217945 0.290117 -0.0832896 -0.849961 0.307824 0.845904 -0.176306 -0.318522 0.493275 0.0703264 -0.0631587 1.14489 -1.3908 1.22792 0.0648313 -0.664515
A30013461 -0.227241 0.268912 0.553783 -0.552981 -1.2462 0.444443 0.791099 1.79647 0.532333 0.0965925 0.686487 0.102934 0.0857579 1.22633 0.427458 0.18704 0.336379 -0.495834 -0.464529 -1.46967 -0.0175038 -0.133387 1.03786 0.198095 -0.921225 0.760667 -0.0377328 0.303962 -0.987246 0.0589709 0.429395 -0.297612 0.575826 -0.246484 0.867499 0.811011 0.495346 0.382205 0.621607 -1.10721 0.292557 -0.305792 -0.33049 -0.121045 -0.938689 0.77639 1.23951 1.14608 0.645006 -0.0589992
A0017137 0.260046 0.318194 0.835767 -0.0996754 0.735264 0.203554 -0.118884 -0.476136 0.154011 -0.582316 -0.287547 0.00460411 0.997523 0.814941 0.146558 -0.361459 0.38214 -1.40541 -0.479858 -0.167718 -0.276539 0.379067 -0.382384 -0.478741 -0.583616 0.14882 -0.487025 -0.697843 0.69816 0.0513003 -0.55383 -0.770521 -0.434048 -0.413161 -0.231977 0.299795 1.01188 0.567928 -0.772735 -0.33626 0.683521 0.118815 -0.444988 0.670875 -0.295685 -0.630264 -0.959729 0.482607 -0.604126 0.560491
A0016695 0.575218 -0.0627197 1.09198 -0.312634 0.597362 0.43687 -0.403934 -0.744407 -0.0490348 -0.231872 -0.556017 -0.525494 0.904792 0.727937 0.407694 0.0885925 0.381982 -1.22232 -0.489285 -0.404479 0.250015 0.328157 0.113046 -0.717948 -0.919695 0.386483 -0.109556 -0.808045 0.549868 -0.213473 -0.356227 -0.8342 -0.619065 -0.233714 -0.119912 0.732358 0.436869 0.118085 -0.97702 -0.227368 0.749288 0.258298 -0.403478 0.385358 0.313057 -0.712691 -1.08773 0.0932405 -0.66549 0.714924
A0534403 0.00949996 1.3934 0.0945615 0.379576 0.889259 0.306103 -0.332194 0.118965 0.178817 -0.28257 -0.857257 -0.336761 -0.071815 0.045583 0.601498 -1.15979 0.694293 -0.425458 -0.21071 -0.507435 -0.414849 -0.130146 0.837286 -0.159355 0.12553 -0.0709733 -0.0956876 -0.681422 0.263504 0.251918 -1.01222 -0.407877 -0.614174 0.219601 -0.122569 -0.636488 0.295357 0.188539 -0.830979 0.117123 1.25132 -0.269602 -0.116002 0.295913 0.127264 0.226271 0.0480294 1.5389 -1.51216 -0.0182983
A23516244 0.882884 0.899084 -0.0761611 0.965057 0.0787437 -0.143059 0.193012 1.46867 0.163811 0.737585 -0.0365395 -0.267827 0.783375 0.439672 1.56099 -0.0574481 1.67424 -0.321061 -0.0376531 -0.804156 0.826535 -0.845389 0.216492 0.097821 -0.27125 0.584268 -1.12706 -0.196606 -0.225955 -0.260019 0.176898 -0.315877 0.0038671 0.484677 -0.273806 -0.442972 -0.377448 -0.204487 0.112668 0.50731 -0.203456 0.687816 0.18637 0.332597 -0.517106 -0.0445616 -0.0331233 -0.00509254 -0.0385378 -0.810037
A4345949 0.419309 -0.232255 0.364803 -0.59608 -0.780889 0.889888 0.438827 0.438847 0.628761 -0.737435 -0.859101 -1.23756 0.230414 -0.0382376 0.26534 -0.0663381 -0.0126328 -0.216958 -0.00819818 -0.272673 -0.875901 -0.158259 -0.547541 -0.670909 -0.534898 1.30188 -0.110672 -0.234407 -0.20978 0.207256 0.457616 -0.160594 0.272606 -0.55169 -1.62854 -0.657022 -0.757653 -0.208215 -0.400795 -0.941658 0.962657 0.343266 0.757027 0.27153 0.217892 0.472455 0.520085 -0.810003 -0.814623 -0.193815
A0017239 0.331036 0.0693561 0.495242 -0.5585 -0.0562168 -0.0512946 0.490189 0.243182 0.440063 -0.743049 -1.08247 -0.927806 -0.177746 0.528744 0.0417517 0.435079 0.125411 0.589825 -0.355294 0.458493 -1.10792 0.366401 0.390032 -0.258514 -0.467663 1.53254 0.720298 0.406298 0.299343 0.649958 0.293908 -0.515666 -0.184789 0.0589995 -1.31929 -1.26821 -0.449676 -0.261829 -0.531003 -0.517774 0.00898864 0.772473 0.547676 0.606612 -0.180962 0.465857 1.00811 -0.692069 -1.06559 -0.768382
A12802436 0.181211 0.272948 -0.208982 0.0314459 -0.53714 0.498336 0.607024 -0.0491436 -0.475931 0.435826 -0.508556 -0.283844 -1.38549 0.415155 0.0273783 -0.610699 0.474916 -0.0857211 -1.47748 0.181991 -0.384931 -0.318713 -0.0332913 0.62267 -0.179646 0.00599834 -0.27253 0.0367386 -0.913186 0.133047 -0.426954 -0.256692 0.446454 -0.235338 -1.12654 0.265416 -0.623977 0.964412 -0.673062 0.599166 1.26652 0.639112 0.139997 -0.0122953 0.0920641 -0.439734 -0.0874969 -0.431341 -0.769608 -0.714077
A31767350 -1.18967 0.37931 0.938672 -0.719657 0.21187 0.228167 0.0406372 -0.417312 0.274181 0.458334 -0.31895 -0.811792 1.07448 0.894063 -0.588178 -0.243229 1.00455 -0.294908 0.411677 0.431926 -0.624192 -0.481239 -0.931728 -0.488074 0.917277 -0.713895 -0.0319141 -0.405271 -0.604415 1.30972 0.538659 -1.48096 -0.377535 1.04009 -0.41531 0.875189 -0.146669 0.0647159 0.482689 0.296179 0.247383 -0.917331 1.04153 1.25126 0.111715 -0.494001 -0.611028 -0.0394383 0.0855576 -0.982983
A17289901 -0.113213 0.644257 1.28928 -0.320801 -0.0248699 -0.615355 0.884188 -0.498929 0.424973 0.456235 -0.607891 0.47759 -0.276622 0.221292 -0.237442 -0.305055 0.988255 -0.869379 0.45532 0.286002 0.0457904 -0.500662 0.0277478 0.355403 -0.615453 -0.0572146 0.32991 -0.712404 -0.236705 0.0648933 0.691903 -1.23663 0.222161 0.845305 0.0026454 -0.314591 -0.873184 0.146562 0.35472 0.0930178 -0.446595 -1.07097 0.482805 -0.115735 0.03247 0.529269 0.337641 -0.255809 0.0166251 -1.16452
A23478950 1.19908 1.01837 0.312032 -0.350868 -0.963873 0.491896 -0.47877 0.366764 -0.792502 -0.603912 -0.162702 -1.17392 -0.402935 0.402814 -0.713854 0.0445678 -0.840475 0.534012 -0.396082 -0.127379 -0.406397 1.26968 0.652593 -0.586355 -0.350558 0.783786 -0.285274 -0.613336 -0.643813 -0.443339 0.024877 -1.33538 0.382996 -0.905877 -1.06374 -0.0552183 -0.866976 -0.174372 0.194446 0.249335 1.56419 0.165592 1.27607 0.862653 0.0387511 -0.519987 1.72112 -0.457663 0.450842 -0.232314
A31714794 -0.26155 0.643633 -0.794641 -0.2011 -0.649994 0.0267008 0.445972 0.527419 -0.571409 0.0307564 0.2749 -0.13227 -0.757408 0.738257 0.472218 -0.396687 0.203254 -0.677217 0.275256 -0.632005 0.480737 0.566042 0.659768 -1.17976 0.101422 -0.19791 -0.769096 0.263958 0.34564 1.04784 0.0504386 -0.88133 0.157958 0.567491 -0.260776 0.190667 -1.08483 -0.131847 -0.249367 0.866417 0.444982 -0.524896 -0.20328 -0.543267 -1.2025 -0.755558 0.611554 0.867271 -0.39124 -1.83438
A0016881 0.862279 0.463265 -1.09961 -0.0339116 -0.428409 -0.207797 -0.532075 1.02905 -0.192388 0.111755 -0.0717948 -0.770099 -0.0816285 0.451271 0.333357 0.956811 -0.44123 -0.81337 -0.297809 -0.773618 0.855823 0.32977 0.620719 -0.771895 -0.415584 -0.122613 -0.167505 -0.202778 -0.260207 -0.0859391 -0.215805 -1.2203 0.810098 0.72647 -2.17003 0.330291 -1.34165 -0.302063 -0.11495 -0.0757661 1.4879 0.0703669 -0.372383 -0.253402 0.307657 -1.15682 0.55442 0.0651381 0.923251 -0.749184
A31685600 0.11468 0.486292 1.66393 -0.511374 0.204744 -0.357949 1.06452 -0.308457 0.0130183 0.268823 -0.398635 0.329826 -0.228482 0.0790339 -0.22265 -0.245136 1.14947 -0.710033 0.106194 0.354797 0.149393 -0.0604277 0.110744 0.252398 -1.05751 -0.255337 0.280033 -0.8932 0.105786 0.315772 0.934573 -0.837177 0.375293 1.09447 0.408451 -0.569207 -0.796867 0.30517 0.216098 0.141216 -0.213813 -1.07848 0.523693 0.077543 -0.0656813 0.787365 -0.0286908 -0.463101 0.0980233 -1.32681
A28940433 0.343082 0.50564 1.17376 0.0193044 0.296888 -0.195472 1.24197 -0.335257 0.245657 -0.0089212 -0.667734 0.947394 -0.256356 0.0611363 -0.238999 -0.418945 1.29548 -0.605785 0.279683 0.417082 0.341348 -0.123935 -0.219702 0.470092 -0.322516 -0.226352 0.308899 -0.906811 -0.482749 0.0283242 0.734025 -1.62784 0.492861 1.08988 0.141073 -0.0835053 -1.36471 0.307025 0.442514 0.161629 -0.250945 -1.19778 0.931304 0.0740974 -0.372259 1.35062 0.229695 -0.765721 0.419076 -1.34752
A31662672 -0.33566 0.347882 1.53514 -0.505455 0.344871 -0.381681 0.302801 -0.512172 0.143454 0.99914 0.151864 -0.0557647 0.0525307 1.15239 -0.0823463 -0.234241 0.948664 -0.347524 0.726401 0.666595 -0.400641 -0.68103 -0.115817 -0.423206 0.140952 -0.849746 0.19179 -0.70261 -0.116986 1.40481 0.351213 -1.27221 0.420851 1.05307 -0.518729 0.340222 -0.360612 -0.442925 0.651434 0.646453 0.997691 -0.859431 1.18931 0.785407 0.555613 -0.0175259 -0.316424 0.489268 0.683329 -0.969043
A0017439 0.112273 0.211644 0.546159 0.0109505 -0.177242 0.917819 -0.338519 -0.0794066 -0.967934 -0.249042 -0.0692454 0.00178639 0.770772 1.86417 -0.0931548 0.160733 -0.156355 -1.13341 0.0730681 -0.65375 -0.435968 -0.49544 0.0741432 0.304078 0.291905 0.329873 -0.574206 -0.712159 0.849581 0.773556 -0.316741 0.0769196 -1.24418 -0.299382 -0.482405 0.478444 0.22187 -0.647792 1.48846 1.39046 1.24462 0.173017 -0.289857 -0.015513 -0.335469 0.46991 -0.374057 1.13713 -0.415577 -0.233582
A1528391 -0.299112 1.71373 0.704396 -0.656849 0.332821 0.411815 -0.21089 0.563549 0.314725 -0.539327 -0.199353 -0.870805 0.513652 1.39377 -1.33365 0.690136 0.607836 -0.708251 -0.210005 -0.84213 0.231619 0.130704 0.782203 0.75712 0.921481 -0.778756 -1.43693 -0.452856 -0.680869 0.86857 -0.524983 -1.65907 -0.42043 -0.226536 -0.012646 -0.424865 -0.597244 -0.45114 0.111422 1.53038 0.376158 -0.746165 -0.766469 0.531778 0.35978 1.08819 -0.608367 0.344031 -1.39219 -0.593899
A31642632 0.00277722 0.4166 2.28338 -0.611298 0.286267 -0.659201 0.722098 0.490982 0.475679 1.29512 -0.00491984 -0.163084 0.125374 0.442892 -0.022135 -0.643103 0.680814 -0.869175 -0.145821 0.438956 -0.818836 -0.192877 0.216811 -0.284145 -0.703975 -0.291502 0.268911 -0.980076 -0.474764 0.433172 0.0158707 -0.431402 1.09674 1.3732 -0.462915 -0.0357723 -1.29519 -0.234969 0.276175 0.527185 0.721976 -0.539064 0.928911 0.400289 0.141869 -0.057452 -0.353208 0.636747 0.581394 -0.74892
A0016893 -0.188573 0.470721 0.83102 -0.0345807 0.0345707 -0.165432 0.37782 0.339608 0.676628 0.0267131 -0.384888 -0.610456 0.837269 0.513405 0.363561 -1.02714 0.58757 -0.0672069 -0.60196 -0.168408 -0.686344 -0.246862 0.759036 -0.115005 -1.09472 -0.0631298 -0.671127 -0.0487763 0.111264 0.55598 -0.330201 -0.19823 -0.868376 -0.915044 -1.80445 -1.04091 0.233494 -0.612476 -0.700377 -0.495111 1.07657 -0.51823 0.697779 0.921155 -0.365997 -0.282973 -1.02846 -0.420654 0.247899 0.410539
A20048974 0.229203 0.0434128 1.47813 -0.754175 0.766417 0.658365 -0.531953 1.02067 1.53465 0.736359 -0.633537 -0.239519 -0.469016 1.55167 1.26783 -0.608117 1.02706 0.246681 -1.30593 0.103841 -1.34992 0.122116 0.794164 -0.335468 -0.349324 0.284104 0.00919065 0.381823 -0.675981 0.202373 0.194087 0.227394 0.207795 -0.51902 0.264491 -0.36733 0.461804 -0.972704 -0.69899 -0.194758 0.532282 -0.178456 0.375123 -0.0217584 -0.47223 0.393556 -1.14008 0.973273 0.301246 -0.589799
A0016919 1.24767 0.166389 1.28323 0.389675 0.594336 -0.0703903 -0.354981 0.997317 0.258225 0.110222 -0.859691 -1.10674 0.836509 0.41811 -0.135736 0.286396 0.27133 -0.301728 -1.2383 -0.498306 -0.458338 1.38877 0.873836 -0.309944 -0.673827 0.898464 0.163702 -0.170961 -0.931948 -0.393407 -0.0287516 -0.596939 0.338385 -0.247503 0.253021 -0.942514 -0.282389 -1.63961 -0.257607 0.773454 0.7083 0.437397 1.14259 0.772714 -0.660475 -0.734655 -0.545368 0.322375 0.590854 0.419675
A31532853 1.24721 0.269208 -0.482806 0.652166 -0.129993 1.56775 0.310369 0.265516 0.467147 -0.173592 -0.554012 0.145473 -0.818065 1.09613 0.117393 -0.113576 0.70189 -0.00135972 -0.299603 -0.537786 -0.848224 -0.363648 0.756755 -0.354314 -0.761691 0.194999 -0.697696 0.277492 0.0440977 -0.21941 0.939587 -1.22855 -0.122329 0.169791 -0.140848 -0.113979 -0.116961 0.338471 -0.343662 -0.297028 -0.0303812 -0.918538 0.54414 0.691662 0.410778 -0.146132 0.0689657 -0.201412 0.509482 0.540431
A32313176 0.729483 0.438986 0.31955 0.185877 -0.0741532 1.16465 0.84521 0.170289 0.095034 -0.871975 -0.24633 -0.0721439 -1.06095 1.26349 0.0409229 0.430906 1.72884 -0.362694 0.221282 -0.825503 -0.916909 0.380248 1.53015 -0.121454 -0.771867 0.0364853 -0.463738 0.698359 0.150673 0.646211 0.564075 -0.828855 -0.0521036 0.2892 -0.15618 -0.661954 -0.518515 0.803748 -0.578488 0.129443 0.229366 0.0648438 0.495029 0.372184 -0.0567171 -0.586016 0.104739 0.554052 0.328206 0.12086
A30289112 -0.068296 0.379507 -0.177224 0.331304 -0.641399 0.496579 0.397424 -0.329281 0.000730418 0.489251 -0.15275 -0.552245 -1.37362 0.746459 0.152311 -0.911853 0.714219 0.184966 -1.08802 -0.059596 -0.976929 -0.330498 0.168293 1.00004 0.0752333 0.0704299 -0.245039 -0.155258 -0.464147 0.31866 -0.116354 -0.386305 0.354322 -0.365714 -0.765925 0.184491 -0.444173 0.912739 -0.788562 0.948935 1.69931 0.979095 0.290456 -0.0637206 -0.136532 -0.551061 0.123482 -0.684876 -0.897165 -1.17134
A24359498 0.2163 0.238451 0.0506184 0.204646 -0.492525 0.42275 0.57384 -0.197241 0.0450139 0.62255 -0.0149753 -0.343772 -1.17222 0.484376 0.276923 -0.458166 0.499016 0.0117834 -1.23355 0.0752729 -0.579766 -0.425531 0.300989 1.10474 0.113587 0.298882 -0.502977 -0.16256 -0.298586 0.00610091 -0.240054 -0.453024 0.421205 -0.813439 -0.882652 0.302444 -0.485643 0.657007 -0.596527 0.649124 1.31301 0.645312 0.090733 -0.294097 0.165222 -0.3999 0.122224 -0.641967 -0.949254 -0.76912
A30294082 0.313769 0.387816 -0.269868 0.10736 -0.431913 -0.0668796 0.652339 0.0923134 -0.108997 0.282317 -0.179199 -0.559888 -1.24681 0.499306 0.26506 -0.59928 0.752436 0.247713 -1.2107 -0.0877001 -1.02884 -0.650408 0.381247 1.32992 0.195193 -0.00730891 -0.227721 0.0259402 -0.554862 0.0738918 -0.1828 -0.479756 0.642983 -0.489249 -1.06613 -0.00372474 -0.56243 0.741122 -0.63425 0.716377 1.21002 0.600421 0.41837 -0.0471703 0.280116 -0.693942 0.13411 -1.01559 -0.872841 -0.735133
A0017103 -0.248151 -0.399349 0.0916651 0.499494 0.734342 0.338427 0.516902 1.16735 -0.449568 -0.0564953 0.478906 -0.380404 -0.114476 -0.400945 0.783144 -1.22994 1.17616 -0.259022 -0.130886 0.671556 0.735455 -0.955581 1.50345 -0.451509 -0.390461 0.521418 -0.204936 -0.1433 0.455386 -0.0309332 0.0869878 -1.17993 0.409193 0.965015 -0.698262 -0.564142 0.270991 0.0412786 0.849768 0.362409 0.560997 0.611318 -0.256547 0.895382 0.0492364 -0.0747276 -0.73492 0.0807236 -0.697701 -0.838151
A0017354 -0.642527 -0.111243 0.0584727 0.661777 0.672314 0.0231207 -0.574803 0.733656 -0.561603 0.437591 0.212216 -0.174466 0.215469 0.149253 0.427116 -1.72313 1.0359 -0.832368 0.611641 -1.06384 0.121151 -1.02235 1.77486 0.041499 0.20274 0.717417 -0.357729 -0.171039 -0.181275 -0.185423 0.496096 -1.59819 0.225528 0.491876 -0.595598 -0.322555 0.163881 -0.343558 0.257055 -0.172428 0.44029 -0.272846 -0.513928 0.504177 0.378912 0.459391 -0.833676 0.78195 -0.60104 -1.23341
A30245328 0.841026 0.121067 0.10714 0.575534 0.354075 0.683525 -0.183408 0.591209 0.0983488 -1.03143 0.527462 -0.160242 -0.974249 0.690874 0.442468 -0.141024 1.66873 -1.01022 -0.065909 -0.521917 -1.20232 -0.181577 0.479301 -1.07975 -0.887375 -0.218948 -0.193423 -0.218504 -0.125904 0.965256 0.721875 -0.47784 0.602663 0.133975 0.0540888 -1.10261 -0.305268 0.131127 0.13823 0.374584 0.373571 0.580643 0.172783 0.246584 0.262259 -0.625811 -0.728348 0.415532 0.180005 -0.155891
A30245864 0.979861 -0.911154 0.207129 0.0801927 0.0104833 0.275539 -0.182121 0.483525 0.332397 0.0987243 -0.273255 -0.339676 0.0440709 1.01524 1.26421 -0.386947 0.698553 -1.12394 -0.799575 -1.41798 -0.886008 0.627636 -0.277226 1.2355 0.687795 1.33109 -1.0194 -0.594909 0.0559748 0.197314 -0.659498 -0.55176 -1.43236 0.50607 -0.698632 -0.313277 0.189637 0.0209006 1.27099 -0.533388 0.201351 -0.0365251 0.238178 1.30475 -0.873285 -0.0688275 -0.345936 -0.28364 -0.108254 -0.381486
A32430374 0.0817857 0.151827 0.589487 0.261838 -0.481424 -0.22447 1.28747 -0.388363 -0.158027 0.932454 0.66984 -0.293216 0.723019 0.299471 -0.72663 -0.47287 1.6505 -1.32723 -0.527497 0.704797 -0.401992 -0.261764 -0.395938 -0.139409 0.0947449 1.8528 -0.538907 -0.457191 -0.735456 -0.210707 1.82858 0.1803 -0.0439913 0.249177 -0.30882 1.21683 -0.962435 -0.237033 -0.140255 0.984209 0.671946 -0.416698 1.53902 0.318937 -0.585929 -0.0587334 1.20524 0.751267 -0.587577 1.35413
A0017248 0.762455 -0.635744 0.278623 0.0774085 0.151508 0.963405 -0.133095 0.772097 -0.52892 -0.846641 0.309864 0.339912 0.232334 0.727711 0.753075 -1.22701 0.589484 -0.587389 1.0022 -0.0633369 -0.276084 -0.135711 0.682448 0.483893 0.259062 0.653625 -0.17416 -0.23467 0.539127 0.448796 0.329129 -0.409014 -0.655984 -1.39736 -0.535441 -0.00460165 -0.559293 -1.03026 0.156579 -0.615754 1.14091 0.549762 -0.0632875 1.44532 0.223516 -0.0425976 0.710295 1.0721 -1.03614 0.0244583
A30235225 0.0420873 0.101565 0.402565 0.24385 -0.854514 0.917939 1.15983 -0.376808 0.00821625 -0.820722 -0.481646 -0.0278674 -0.869006 1.10587 0.318726 -0.0566056 1.68321 -0.439249 -0.145296 -0.292446 0.055724 0.256998 1.3075 -0.43686 0.118186 0.0937418 0.383849 0.650757 0.749057 0.556322 -0.246584 -1.16216 -0.219119 -0.123878 -0.0543617 -0.259365 0.0384284 -0.151327 0.355021 0.7256 0.735311 -0.379164 0.333456 1.99097 0.949605 0.31338 0.57025 0.398613 0.261129 0.394922
A30216127 0.886283 -1.0225 0.371538 -0.161459 0.510559 0.13452 -0.374668 0.88869 0.855205 0.000386245 -0.134981 -0.0609287 -0.414284 1.2842 1.66843 -0.592991 1.17584 -0.430095 -0.714323 -1.05467 -0.664202 1.156 0.143547 0.350147 0.533081 1.54648 -0.597423 -1.15723 1.0138 0.297898 -0.779411 -0.541606 -0.995117 0.626455 -0.198431 -0.528623 -0.451237 0.383078 0.947906 -0.490228 0.442243 -0.388819 0.0485616 1.58283 -0.689665 0.0255463 -0.801311 -0.494666 -0.0128889 -0.685141
A0090126 0.574862 -0.855058 -0.591331 0.339434 0.719862 0.137031 1.01582 0.322236 -0.027481 0.952942 -0.416957 -0.805131 0.648784 0.833563 0.648818 0.219695 -0.0389699 -0.492477 -0.414805 -0.866459 -0.0965486 -0.0401802 -0.894012 -0.64783 -0.593533 -0.361038 -0.149542 -0.919878 0.168787 -0.298375 0.782579 -1.53024 -0.0660334 -0.430129 -0.924603 -0.0631451 1.00114 0.787795 1.37937 0.818878 0.747687 0.104741 0.403822 -0.115041 -0.539193 0.37604 0.0979416 0.544099 -0.2569 -0.24242
A0121031 -0.012923 0.660799 0.992321 0.325919 -0.129989 0.0538631 -0.118186 0.687844 0.11897 -0.705892 0.15252 0.0129321 0.27686 0.898952 -0.355146 0.197225 1.0666 0.49958 0.310404 0.0291002 -0.395822 -0.0426746 -0.564593 0.0213072 -0.234419 0.224306 -1.07876 -0.301349 0.308165 0.232616 -0.164362 -0.474306 -0.721719 -0.739412 -0.772518 -1.16542 -0.432506 0.951105 -0.159329 0.220949 0.0779869 -0.605943 0.681916 0.149814 0.337221 -0.0243192 0.400918 0.115316 -0.0306216 -0.539032
A30035951 0.553522 0.0732325 0.52641 0.705927 -0.0602476 0.653961 1.07248 0.0273573 0.535757 0.932626 0.535825 -0.985424 0.772949 -0.121709 -0.220248 0.0876565 1.06884 -1.20989 -0.1619 0.556396 -0.478522 0.0911129 0.721247 0.474862 0.395029 1.5357 -0.550506 -0.428357 -0.710903 -0.288359 1.75282 0.383002 0.0397946 -0.402004 -1.38667 -0.242869 -0.632052 0.272519 -0.788375 0.380004 1.43249 -0.387681 -0.0816957 0.892631 0.156501 0.903338 -0.00421511 0.466939 -0.495279 0.849267
A30191309 -1.05017 -1.44209 0.714206 1.09809 0.990706 1.84477 0.746353 0.434397 -0.536368 -0.180533 -0.708957 -0.0543431 0.17132 -0.30006 1.52459 0.749254 2.15085 0.0633245 0.236088 -0.930297 0.0898267 -0.898201 -0.451824 -0.114054 0.334112 0.198877 -0.510742 -1.5652 0.620317 0.385737 -1.03418 -0.54887 1.17896 0.0937625 0.354497 0.130547 -0.786692 -0.0458306 -0.625922 0.112147 0.381409 -1.62588 0.686004 0.0875887 0.392565 1.42553 -0.102588 0.560822 -0.128816 0.0139044
A19395058 1.04906 -0.287675 1.11706 0.583314 -0.361666 0.0568956 0.405655 0.0484641 -0.21915 -0.817147 -0.781323 0.318134 0.527144 0.6689 0.349485 -0.59277 1.24921 -0.0928291 -0.0764534 0.353675 0.201995 -0.365131 0.754502 0.952996 0.754241 -0.57611 0.330579 -0.769337 -0.660875 0.11474 -0.146872 0.542379 0.16082 0.726448 -0.100396 -0.298162 -0.905076 -0.404735 0.202219 -0.424853 0.125128 0.00711054 0.922342 0.196366 -1.07083 1.49838 -0.260186 0.0105663 -0.0974429 -0.739856
A17128141 0.980491 -0.395268 1.26293 0.661882 -0.44733 0.0274629 0.261272 0.0923556 -0.293968 -0.94186 -0.864553 0.344709 0.492129 0.916716 0.406933 -0.315741 1.42253 0.0548808 -0.365535 0.250011 0.236809 -0.225052 0.771884 0.728476 0.646007 -0.509366 0.400533 -0.565371 -0.525303 0.354321 0.0208599 0.763235 0.303269 0.864986 -0.0921863 -0.213765 -0.875156 -0.493692 0.10768 -0.477124 0.122787 0.249307 0.893923 0.110167 -1.09109 1.35189 -0.305873 -0.118676 -0.349469 -0.876363
A18931143 1.01957 -0.332525 1.45449 0.327426 -0.336797 0.382067 0.081864 0.115726 -0.527654 -0.700822 -0.750993 0.114425 0.309436 0.521129 0.0119755 -0.472638 1.32102 -0.339375 -0.320439 0.614829 0.184346 -0.0512673 0.746599 1.15534 0.836497 -0.627365 0.175101 -0.694976 -0.801068 0.396658 -0.221815 0.217104 0.325597 0.970579 -0.00249005 -0.016563 -0.792046 -0.581889 0.417071 -0.161319 0.315798 -0.0238026 1.29328 0.098736 -1.06538 1.22264 -0.617797 0.071008 -0.124693 -0.70076
A17113978 0.765548 -0.160643 1.27533 0.431443 -0.302967 -0.113328 0.42259 0.227871 -0.421724 -1.23476 -0.648225 0.320016 0.424266 0.637256 0.265001 -0.0742861 1.11723 0.0897305 -0.451697 0.464741 -0.227326 -0.151846 0.492678 1.04729 0.596241 -0.162642 0.273003 -0.446785 -0.339451 0.182449 -0.0299937 0.132808 0.511028 0.903557 0.123236 -0.178628 -0.854473 -0.301763 0.0752259 0.0588451 0.251729 0.0349725 0.679255 0.333942 -1.17629 1.07465 -0.357073 0.00898704 -0.443983 -0.676939
A18934403 1.0346 -0.181191 1.40414 0.592926 -0.173019 0.195024 0.360252 -0.0437296 -0.216722 -0.733693 -0.414403 0.101988 0.337419 0.632501 0.130404 -0.712462 1.30545 -0.00546923 -0.0889984 0.47185 0.107098 -0.292405 0.390381 1.17309 0.750252 -0.500511 0.158044 -0.699803 -0.944305 0.235145 -0.582225 0.438096 -0.0380005 0.87957 -0.122529 0.0575708 -1.05331 -0.584539 0.345524 0.00162615 0.208244 0.254497 1.10274 0.0930759 -1.27493 1.04706 -0.511683 0.0861935 -0.258487 -0.8553
A18798231 1.02026 -0.50397 1.4399 0.271402 -0.151898 0.0815517 0.128674 -0.0103818 -0.179596 -1.03957 -0.97354 0.696872 0.528512 0.5985 -0.0346857 -0.561025 1.28409 -0.00448281 -0.292684 0.373473 0.0836469 -0.423274 0.421602 1.06774 0.688601 -0.321177 0.0251848 -0.756179 -0.594355 0.139581 -0.311793 0.334135 0.238085 1.00464 -0.257165 -0.167591 -0.814483 -0.666849 -0.0209261 0.106533 0.409641 0.364385 0.804176 0.321646 -1.12702 1.34614 -0.303939 0.235423 0.0667307 -0.736156
A10350411 0.978283 -0.1218 1.50772 0.203905 -0.498551 0.257613 0.117724 0.216882 -0.339165 -0.840978 -0.973304 0.344397 0.517857 0.459673 0.145734 -0.730383 1.33767 -0.124374 -0.156736 0.483621 0.199619 -0.153802 0.819565 0.65559 0.813248 -0.641545 0.580851 -0.538188 -0.858827 0.0832149 -0.0147647 0.51909 0.216453 0.862408 -0.0144753 -0.0561374 -0.847497 -0.439542 0.498719 -0.0376793 0.0273354 0.190519 0.973708 0.34248 -0.876934 1.46035 -0.336908 -0.0575734 -0.409163 -0.676531
A18083012 0.852277 -0.153199 1.31937 0.370221 -0.366102 0.0484896 0.349346 0.232331 -0.240335 -1.07004 -0.676217 0.402515 0.54668 0.290109 0.412271 -0.0700298 1.15024 0.060323 -0.600432 0.432516 -0.298905 -0.481412 0.340736 0.913019 0.586942 -0.242252 0.401576 -0.463591 -0.438952 0.137761 -0.221506 -0.0573267 0.240302 0.756331 -0.0363225 -0.0743428 -0.816203 -0.13336 0.237914 -0.0138378 0.16414 -0.0683603 0.59727 0.244497 -1.09467 1.16261 -0.322448 -0.0925181 -0.326203 -0.487228
A17129475 0.924168 -0.0702291 1.01263 0.645071 -0.390389 0.0298766 0.214704 0.119957 -0.138691 -1.12909 -0.61777 0.454836 0.663658 0.471305 0.223808 -0.411972 0.860283 -0.140127 0.0358645 0.467161 -0.335131 -0.111561 0.437056 0.614127 0.819925 -0.280022 0.339588 -0.704017 -0.466948 0.117691 0.0349396 0.0958461 0.31384 0.778584 0.0127886 -0.107327 -0.685845 -0.878111 0.236167 -0.00911172 0.371469 0.402384 0.770213 0.0565915 -0.847889 1.046 -0.535438 0.126791 -0.127781 -0.404433
A17453141 0.693441 0.182919 -0.0189125 -0.0423866 0.709041 -0.619456 0.511814 1.61263 0.481671 -1.91889 0.605095 -0.888188 1.33137 1.80672 -0.128831 0.104535 0.0167756 0.402117 -0.499793 0.0457018 0.284472 -0.639648 -0.135503 -0.791191 0.523867 -0.189021 0.818996 -1.15738 -0.444041 1.49401 -0.582627 -0.326838 -0.514845 0.19519 0.302031 0.0289133 -1.3531 -0.399917 -0.306821 0.234978 0.915219 -1.61021 -0.61832 1.03281 -1.51314 0.673643 0.243704 0.189511 0.187471 -0.205689
A13004857 -0.285372 -0.461464 0.558606 -0.123478 0.308711 0.832854 1.39422 1.1502 0.449199 -0.848153 -0.738394 0.585972 -0.0293676 0.510654 0.0952437 -0.0953683 0.794954 1.11914 0.298724 1.09506 0.861859 0.309735 -0.351261 -0.529962 -0.366265 0.944532 0.415895 0.455126 0.436481 -0.270762 0.260395 -1.17558 0.223832 -0.606919 1.19733 0.371876 -0.718415 -0.619438 0.506779 1.10566 1.65969 -0.207919 0.953322 1.82899 -0.623584 -0.0908904 0.277673 0.845552 -0.366909 0.657185
A2036679 -0.106324 -0.00636875 0.249475 0.0941852 -0.138604 -0.406312 0.144818 -0.768622 0.0137693 0.333854 0.0535711 0.13401 -0.470473 0.513017 -0.385042 0.167461 -0.729171 0.22313 0.129067 -0.207499 0.49678 -0.93392 0.422656 0.126603 0.563054 0.0663781 0.433721 -0.600482 -0.440252 -0.681004 0.573295 0.678635 0.174304 -0.246657 0.0932681 -0.557157 0.0278539 -0.349302 0.00125496 -0.289878 -0.0388498 -0.520583 0.177039 0.800861 -0.277946 -0.969498 -0.310223 -0.0306057 -0.0390464 -5.84538e-05
A19595439 -0.459435 -0.00120794 0.178015 0.0855716 -0.38413 0.106363 0.279904 -0.247478 0.123522 0.172577 0.0018184 0.268211 -0.458344 0.273141 0.164182 0.0196703 -0.472207 0.3448 0.130513 -0.378962 0.305815 -0.541731 0.052631 -0.108337 0.648622 -0.264214 -0.345592 0.0507671 -0.328173 -0.513754 0.538956 0.275074 -0.0434455 -0.304518 -0.35251 -0.379296 -0.0663877 0.046833 0.17248 -0.266522 0.0152114 -0.40047 -0.21137 0.0868344 -0.316144 -0.12545 -0.0474031 0.0813411 -0.125023 0.118804
A0160147 -0.478619 0.413836 0.234846 -0.0119162 -0.223686 0.194713 -0.392107 -0.638043 0.10935 0.0326326 0.0443255 0.578328 -0.511696 -0.234037 -0.0236746 -0.0626525 -0.771454 0.00174407 0.203865 -0.600754 0.102083 -1.01826 0.339384 0.108011 0.759936 -0.0473624 0.0265299 -0.67747 -0.250267 -0.510605 0.473755 0.132574 -0.308564 0.286362 0.272157 -0.418775 -0.620824 -0.685012 0.0231818 0.122585 0.187992 -0.293449 0.464038 0.586763 -0.539399 -0.679438 -0.226512 0.04626 0.408911 0.298363
A1380776 -0.320002 0.285391 -0.106736 0.0129232 -0.045519 0.085396 0.262445 -0.386365 -0.150545 0.311014 0.16358 0.314396 -0.596152 0.214242 0.000503844 0.535682 0.24853 0.138047 -0.435905 -0.481138 -0.422708 -0.0206556 0.123595 0.0340619 0.52427 -0.0175151 0.0605747 -0.132308 0.056593 -0.519192 0.0460554 0.0684542 0.183271 -0.340552 -0.275084 -0.0171431 0.0485126 -0.555148 0.174903 -0.386204 -0.169497 0.00262559 -0.34947 -0.140706 -0.405512 0.135131 0.142868 -0.0539073 -0.0167692 -0.486478
A16996882 -0.489061 -0.0566695 0.373106 0.0430367 -0.148354 -0.176915 0.21617 -0.153752 0.493181 -0.0170263 -0.165826 0.1324 -0.415859 0.0327382 -0.172633 0.32175 -0.0413904 0.153995 -0.215586 -0.292897 0.290664 -0.505315 0.20628 -0.0446916 0.710139 -0.153677 0.239456 -0.361218 0.0276847 -0.58576 0.413921 0.289225 -0.126222 -0.47868 -0.180126 -0.0123405 -0.479721 0.369148 0.154373 -0.100566 -0.210601 -0.0473966 -0.211782 0.0485579 -0.494888 -0.291553 0.311997 0.458147 0.200103 0.218237
A1357104 -0.509023 0.341789 0.37968 -0.294988 -0.077481 -0.168412 0.53948 -0.819638 -0.11643 -0.387884 0.143471 0.320377 -0.546627 0.608718 0.02514 0.414607 -0.660686 0.310777 0.170909 -0.624339 0.642599 -1.32045 0.60166 0.0143692 0.494667 0.142282 0.369879 -0.232634 -0.0383726 -0.935922 0.27363 0.552789 0.247508 -0.192972 0.353125 0.209493 -0.514368 -0.149296 -0.164491 -0.40011 0.0245051 -0.367242 0.304691 0.80388 -0.453013 -0.96574 0.0677946 -0.0335307 -0.0633563 0.0122647
A10913289 -0.499602 0.133263 0.617375 -0.157644 -0.254518 0.348892 0.0441658 -0.0629057 -0.19066 -0.321538 -0.176851 0.162702 -0.353442 0.130959 0.184743 0.112675 -0.201222 0.300443 0.124198 -0.390124 0.225617 -0.240341 -0.149694 0.136646 0.115546 -0.282924 -0.104337 0.01123 -0.124084 -0.758542 0.784446 0.129438 0.0961497 -0.315152 0.110691 -0.162853 0.0448376 -0.263126 -0.214794 -0.125957 0.0854686 -0.517538 -0.106017 0.0978356 -0.225253 -0.384772 0.234444 -0.291535 -0.103961 -0.0753168
A0631697 -0.269625 -0.0920777 0.61279 -0.777982 0.127771 0.179554 -0.072396 -0.667852 0.244023 0.199091 0.153638 0.329463 -0.846206 0.284793 -0.431631 0.290021 -0.61621 0.452132 0.43443 -0.127362 0.552412 -0.685529 0.311857 0.0389165 1.03931 -0.0152439 0.0267842 -0.340995 -0.465206 -0.637224 0.359537 0.321767 -0.0948566 -0.231301 0.0457228 -0.214252 -0.245534 -0.521465 -0.467929 -0.127755 -0.0978611 -0.0588752 0.0427718 0.567 -0.506987 -0.718118 -0.300135 0.113645 -0.36422 0.197021
A24315207 -0.304418 -0.0485275 0.916087 -0.212528 -0.116774 -0.124752 -0.281397 -0.388698 0.0889127 0.23395 0.0260781 0.373931 -0.475641 0.120371 0.176047 0.504689 -0.690625 0.314218 -0.146672 -0.375051 0.024692 -0.927714 0.230566 -0.352382 0.981373 0.207424 0.208564 -0.543757 -0.729294 -0.718688 0.225972 0.355611 0.231927 -0.525114 -0.0181559 -0.369671 0.226096 -0.0716814 -0.023187 0.0317001 -0.18119 0.0736881 -0.0128174 0.62111 -0.0799567 -0.46021 0.391548 0.0868521 0.0929315 0.12274
A1318994 -0.687319 0.0754605 0.61422 -0.21091 0.192492 -0.403649 0.113007 -0.289414 0.0829161 0.198896 -0.040697 0.393629 -0.646342 -0.256494 0.182327 0.271296 0.030761 -0.146838 -0.0411992 -0.403834 0.0748868 -0.0268467 0.352811 0.0809 0.547956 0.132606 0.049732 -0.768527 0.0485323 -0.696244 0.358944 0.397038 -0.069544 -0.0346865 0.0719932 0.0863171 -0.387556 -0.475799 -0.0477482 -0.256345 0.0739015 -0.0982754 0.14996 0.313452 -0.689106 -0.614548 0.053532 0.09432 0.19278 -0.0516902
A0831999 -0.397522 0.393972 0.488028 -0.221263 0.412583 -0.0286053 0.0851452 -0.592115 -0.276129 0.158634 -0.312439 0.459334 -0.433566 -0.222339 0.348764 0.136177 -0.67732 0.471616 -0.381919 -0.257075 0.471629 -0.838995 0.358965 -0.0310361 0.695245 0.319229 0.435373 -0.508062 -0.274297 -0.651796 0.220626 0.597356 0.362009 -0.391065 0.180771 -0.210423 -0.279766 -0.231502 -0.276839 -0.180455 -0.111711 -0.337172 -0.00803921 1.17215 -0.490084 -0.804052 0.0149975 0.266942 -0.0137849 0.224419
A0156066 -0.300015 0.233745 0.573968 0.285258 -0.261207 0.26377 -0.283282 -0.409979 0.18779 0.224759 -0.0384635 0.0961924 -0.484821 0.282276 0.108984 0.152544 -0.0792919 0.440985 -0.14973 -0.351573 0.265975 -0.520678 0.130127 -0.174794 0.246823 -0.277276 0.288592 -0.101628 -0.0900706 -0.695341 0.470921 -0.0931098 0.124902 -0.209334 0.23497 -0.633855 -0.398421 -0.0443916 0.0334945 -0.189357 -0.0736298 -0.0358398 -0.52622 0.283101 -0.38777 -0.34674 0.115994 0.27635 0.133188 0.173112
A17397992 -0.371762 0.085725 0.495544 -0.352599 -0.024436 -0.1957 -0.32902 -0.196698 0.281786 0.135116 0.114467 0.376116 -0.571426 0.00590183 0.242118 0.175661 -0.000264835 0.106279 -0.144291 -0.371724 0.230183 -0.688969 0.216324 -0.161992 0.860589 0.108306 0.174568 -0.361331 0.133581 -0.882367 0.399697 -0.147506 -0.129086 -0.340652 -0.0546663 -0.0488455 0.00898864 -0.379709 0.0560727 -0.409254 0.0313483 -0.235938 0.401297 0.0565807 -0.531244 -0.174847 0.325651 0.106667 0.452205 0.0417907
A0569092 -0.17596 -0.153542 0.236408 0.360058 0.199017 0.101664 -0.151305 -0.402687 0.070519 0.0734723 -0.17411 0.349039 -0.598314 0.158422 -0.144356 0.313094 -0.0331534 0.0969885 -0.0302216 -0.679174 0.126091 -0.645326 0.340393 -0.204653 0.363057 -0.310987 0.154568 -0.765727 -0.0746169 -0.286108 0.189394 0.218527 -0.0387818 -0.472193 -0.0272794 -0.0246109 -0.236644 -0.0406893 -0.088326 -0.17502 0.115328 0.124016 -0.194339 0.320762 -0.576087 -0.209933 0.236256 0.19691 0.205517 0.199603
A17398328 -0.462592 0.423629 0.867259 -0.261734 0.0343506 -0.12166 -0.2016 -0.593945 0.0909623 0.17501 -0.280163 0.480846 -0.353201 0.177094 0.343427 0.672349 -0.892314 0.350741 -0.42783 -0.354809 -0.0141423 -0.915084 0.0431882 -0.0209779 0.970505 -0.0649513 0.0391222 -0.808095 -0.384048 -0.693241 0.2468 0.546841 0.618754 -0.108468 0.309156 -0.680197 -0.214397 -0.137355 -0.264422 -0.0905518 -0.115886 -0.158879 0.0985113 0.375027 -0.232644 -0.338166 0.183091 0.479324 0.0812971 -0.0985979
A2330141 0.210643 0.0724913 0.197564 -0.173993 -0.255134 0.325446 0.154151 0.00605458 -0.0929893 0.476593 -0.321754 -0.251534 -0.322858 0.0508154 0.110021 -0.192118 0.141995 0.0144389 -0.152795 -0.521882 -0.100975 0.12133 -0.290512 -0.0773577 0.424939 -0.309804 0.199442 -0.273753 -0.0763831 -0.109632 0.266959 0.572479 0.151948 -0.340075 -0.349846 -0.398289 0.125235 -0.291358 0.0885307 0.0957376 0.0457725 0.332387 -0.700183 -0.00421445 -0.0212749 -0.0596209 0.46722 -0.201693 0.255436 -0.149131
A0305730 -0.263815 0.185812 0.117432 -0.0763303 -0.0153707 0.340354 0.00475714 -0.173953 0.112216 -0.349595 -0.149016 0.201207 -0.2931 -0.0268375 -0.0286099 0.229331 -0.22767 0.176731 -0.0692349 -0.152482 0.301758 0.0522644 -0.331791 -0.0113696 0.417277 -0.412018 0.0848511 -0.382782 0.308798 0.434294 0.133806 0.167003 0.701618 -0.286725 -0.41586 -0.214646 0.166077 0.0461178 0.532903 0.0793294 -0.0986479 0.0652536 -0.246717 0.174021 -0.0698736 -0.329152 0.402537 -0.274458 -0.460147 -0.0771263
A2023949 -0.0825843 -0.160817 0.421795 -0.125686 -0.331828 0.140879 0.10872 -0.116752 -0.0386077 0.349708 -0.379934 0.0874583 -0.290457 -0.0130239 0.395361 -0.150718 -0.356104 0.317431 0.417685 -0.615152 0.274943 -0.22951 0.0982094 -0.361667 0.18198 -0.202883 0.00467569 -0.0517238 0.0330319 -0.389565 0.334434 0.669159 0.329066 -0.436641 -0.267057 -0.103502 0.182545 -0.35302 0.296097 0.00980453 0.317948 -0.0446145 -0.153048 0.386284 -0.160471 -0.0949618 0.245543 -0.174288 -0.107246 -0.0431163
A32528634 -0.34165 -0.0481106 0.518719 -0.226888 0.0833296 -0.112345 -0.303293 -0.743219 -0.0161187 0.128665 0.15866 0.0284795 -0.818994 0.10179 0.345265 0.12457 -0.486674 -0.0774243 -0.413862 -0.294121 0.596931 -0.636573 0.370535 -0.0614348 0.957122 0.141498 0.148215 -0.698756 -0.285864 -0.256329 0.564289 0.836944 0.000379278 -0.237222 0.254526 -0.398153 0.0230545 -0.0130835 -0.523888 -0.0625486 0.244582 -0.6195 0.111983 0.568608 -0.742113 -0.383589 0.46572 -0.450512 0.0464499 0.214033
A28386932 0.327937 0.0788345 0.380979 -0.17104 -0.372808 0.321627 -0.343306 -0.182613 0.0615015 0.467091 -0.170679 0.026855 -0.130223 0.0654058 0.00489542 0.178692 -0.261305 0.698197 0.269049 -0.702372 0.31932 -0.462552 -0.0442748 -0.0501627 0.407193 -0.377431 0.131247 -0.153618 0.315367 -0.575834 0.456745 0.0883029 0.00644607 -0.440864 0.123621 -0.49251 -0.303471 -0.356761 -0.269565 -0.0401929 6.8074e-05 -0.126327 -0.0614016 0.332564 -0.51823 -0.11748 0.253985 0.0367836 0.189914 0.184991
A17396700 -0.112037 0.0368226 0.23461 -0.0999895 -0.156454 0.0978279 0.224058 0.00719969 0.0097393 0.305041 -0.228523 -0.119945 -0.165843 0.147891 0.436167 -0.13577 -0.092913 -0.0463457 -0.239959 -0.206999 0.0930239 -0.312179 -0.251657 0.00286435 0.415264 -0.376231 0.234001 -0.354121 0.138997 -0.42074 0.418569 0.18138 0.158375 -0.463781 -0.180681 -0.370672 -0.00949557 -0.301594 0.0234707 -0.167267 -0.264499 0.211288 -0.486094 0.493201 -0.313905 -0.307044 0.239726 -0.0862727 0.276255 -0.0643106
A28918701 -0.2918 -0.157957 0.178482 0.237485 -0.220484 0.158663 0.187409 -0.0372122 0.190102 0.202381 -0.151805 0.0366732 -0.127014 -0.0130885 -0.197577 0.351848 0.378757 0.197991 -0.0929239 -0.569888 0.418188 -0.150594 0.134705 -0.171115 0.301524 -0.272631 0.185293 -0.40693 0.120566 -0.295825 0.214229 0.377274 -0.14339 -0.469336 -0.241279 -0.0416442 -0.463658 0.348417 0.110575 -0.217461 -0.207809 0.384558 -0.512372 -0.144289 -0.491056 -0.399778 0.372704 0.0685499 -0.0143267 0.0855594
A22787155 -0.137609 0.295391 0.561273 -0.353783 0.202866 0.011993 -0.495875 -0.317782 -0.407354 0.162563 -0.364113 0.266067 -0.92101 0.420571 0.0834898 0.0415169 -0.720868 0.459669 -0.106766 -0.466413 0.199319 -0.945074 0.0545304 0.132234 1.44197 0.044518 0.43652 -0.614922 -0.478911 -0.70495 0.332592 0.225265 0.128998 -0.475693 0.33043 -0.18004 0.232455 0.0318853 -0.138656 -0.0871248 0.181091 -0.120707 0.0272458 0.8269 -0.22613 -0.349386 0.0656227 0.178994 -0.126763 0.168318
A8413880 -0.360376 0.184656 0.577225 0.0324131 0.106977 -0.148354 0.208852 -0.212443 -0.0100238 -0.152778 -0.292107 0.0946206 -0.397509 -0.0171493 -0.126164 0.100625 -0.0582808 0.28651 0.289733 -0.374819 0.70013 -0.36728 0.376032 0.0874538 0.475191 -0.354831 0.329607 -0.360039 0.178186 -0.653838 0.654507 -0.00995903 -0.162229 -0.53527 0.036979 -0.043744 0.156492 -0.238118 0.1127 -0.129217 0.119344 -0.207709 0.0316228 0.260225 -0.355184 -0.413693 0.166012 0.173269 0.0638333 -0.0222955
A0168723 -0.171064 -0.0699393 0.198933 -0.282276 0.107576 -0.26584 -0.198577 -0.701305 0.0160832 0.237022 0.111451 0.0554332 -0.273006 -0.11227 0.242607 0.396178 -0.445397 0.173014 0.076833 -0.407519 0.19739 -1.10552 0.679111 -0.280197 0.840743 0.00117112 -0.257218 -0.729892 -0.351499 -0.680756 0.722308 0.477514 0.023831 -0.0432278 0.404972 -0.478439 -0.282238 0.0859665 -0.383851 -0.214967 -0.0947488 -0.233579 -0.12226 0.971432 -0.456715 -0.512608 0.35094 0.122611 -0.00426149 0.268255
A10913502 -0.492498 0.142846 0.00863734 -0.245193 -0.232386 0.149096 -0.0260891 -0.551097 -0.114971 -0.0638841 -0.00345733 -0.255539 -0.613762 -0.0612157 0.023895 0.236005 -0.189432 0.635893 0.209374 -0.580847 0.388058 -1.12937 0.46157 -0.405877 0.184573 0.048107 0.374204 -0.187858 -0.0928244 -0.255756 0.548041 0.493334 0.0831382 0.141348 0.0887782 -0.440998 -0.134638 -0.00244413 0.120761 -0.435768 0.397973 -0.114781 0.00605888 0.573453 -0.711892 -0.531651 0.140447 -0.205333 0.0584665 0.00311839
A18897451 -0.221705 -0.0493433 0.22294 -0.305729 -0.252698 -0.189466 -0.326144 -0.611767 -0.193975 0.172659 0.173222 0.202008 -0.245693 0.193014 0.172986 0.197342 -0.693214 0.198799 -0.263621 -0.72813 0.170192 -1.20189 0.373394 0.0385159 0.615333 -0.206668 -0.241373 -0.912078 -0.115229 -0.306798 0.335729 0.553804 -0.610825 0.225046 0.582256 -0.449409 -0.628233 -0.0710355 -0.31018 -0.297035 -0.110284 -0.176287 0.012112 0.788152 -0.695553 -0.477773 0.368668 0.269806 0.106487 -0.0768025
A2296853 -0.16844 0.383334 0.197631 -0.319154 -0.234712 -0.341602 0.182991 -0.814466 -0.0474338 -0.103835 -0.349354 0.561113 -0.402526 0.202088 -0.361016 0.313496 -0.937094 0.202048 -0.186923 -0.290603 0.205581 -0.543347 0.366264 -0.046711 0.853064 0.127801 0.421506 -0.520713 -0.377702 -0.743154 0.347637 0.351669 0.208707 -0.0478002 0.129116 -0.164083 0.176607 -0.364068 -0.244291 -0.147149 -0.13977 -0.300501 0.0764949 0.89792 -0.629193 -0.834801 0.240992 0.0603843 -0.602758 -0.124129
A10910170 -0.413962 0.451502 0.360076 0.0218398 -0.323288 0.0240352 0.0462495 -1.1738 0.229473 0.0095924 -0.224527 0.241338 -0.498767 0.2123 0.121047 0.659163 -0.630132 0.319415 -0.17336 -0.49444 0.411027 -1.0416 0.346572 0.0861629 0.627291 0.222113 0.366737 -0.093426 -0.129802 -0.617895 0.220417 0.482709 0.0269079 -0.297271 0.204145 -0.261698 -0.423871 -0.524746 -0.0545669 -0.0662538 -0.0283852 -0.407449 0.125097 0.551001 -0.552266 -0.753629 0.039559 0.0592711 0.174663 0.212942
A1336371 -0.428661 0.185442 0.191028 -0.518674 -0.453959 -0.107301 -0.0672937 -0.555079 0.0342438 0.0577057 -0.0298522 0.120801 -0.578907 -0.201218 0.287409 0.426889 -0.35078 -0.0553729 0.107277 -0.365374 0.147214 -0.919898 0.557246 -0.0549795 1.14173 -0.172008 -0.0466187 -0.959752 -0.0776896 -0.66633 0.311829 0.689316 0.243115 0.18328 0.54681 -0.402459 0.000374183 -0.193211 -0.464753 0.104157 0.0218355 -0.56892 0.0195235 0.480771 -0.612237 -0.622347 0.545666 0.0716578 -0.422648 0.0695126
A28396651 -0.56138 0.311992 0.253365 -0.680951 0.140666 -0.228483 0.0665059 -0.917624 0.0121397 -0.261371 0.241261 -0.0773779 -0.437845 0.233409 0.254123 0.6207 -0.337618 0.517612 -0.337231 -0.603903 0.394298 -1.07485 0.496742 -0.128358 0.541831 0.178354 -0.152027 -0.252244 -0.582689 -1.03749 0.190437 0.588937 0.257199 -0.454258 0.259558 -0.370739 -0.574209 -0.115308 0.0349328 -0.357324 -0.276944 -0.398673 0.509179 0.813655 -0.602013 -0.526085 0.277092 0.300371 0.0949949 0.272011
A28924167 0.195822 -0.134979 -0.329106 -0.0900981 -0.0813446 0.515246 0.0906749 -0.179612 0.138019 0.312901 -0.343079 -0.214548 -0.219708 -0.100842 0.252729 0.214826 0.312571 0.0046456 0.0940317 -0.376976 -0.0992875 0.0580361 -0.16108 0.0943142 -0.0384873 -0.509675 0.152886 -0.430871 0.460384 -0.152411 0.23338 0.646007 0.442313 -0.564743 -0.250596 0.0193069 -0.0540138 -0.445826 0.0180839 0.0259782 0.112606 0.101391 -0.495785 0.470059 -0.269906 0.06499 0.260117 -0.219002 0.150651 0.0145721
A2792236 -0.291097 0.450897 0.256931 -0.326276 0.0799586 -0.370474 -0.00247325 -0.85754 -0.173314 0.258772 0.212254 -0.0698389 -0.500233 -0.105757 0.683584 0.265566 -0.461745 0.310443 0.112771 -0.573356 0.771533 -0.911291 0.450236 0.203161 1.11014 0.249234 0.12549 -0.299052 -0.000628554 -0.608536 0.592408 0.593651 0.460077 -0.147232 0.412963 -0.239898 -0.475259 -0.268688 0.334517 -0.0155682 -0.0196426 -0.429216 0.583085 0.855096 -0.815627 -0.371433 0.205806 -0.175528 0.376825 -0.0623866
A8604155 -0.244755 0.430918 0.403413 -0.204053 -0.180658 -0.141395 -0.281631 -0.362526 -0.33531 0.106974 -0.0598451 0.205303 -0.475645 0.0263331 0.219604 0.46664 -0.698222 0.159363 -0.0343049 -0.509255 -0.121404 -0.98048 0.482267 -0.628111 0.829207 0.277503 0.444158 -0.625336 -0.403877 -0.595067 0.286416 0.434235 0.171567 -0.0629025 0.389875 -0.321205 0.0606107 -0.340274 -0.434407 0.12556 -0.0228471 -0.188519 -0.0903432 0.642761 -0.410219 -0.69139 0.281438 -0.122822 0.134948 -0.015513
A24827523 -0.767175 0.267753 0.606381 -0.489369 -0.0626167 -0.112351 0.281188 -0.477561 -0.262068 -0.356969 -0.0859691 0.429108 -0.432638 0.195557 0.384559 0.249218 -0.741247 0.582198 0.376551 -0.518125 0.239771 -0.756214 0.320875 0.107771 0.878437 0.189844 0.0395559 -0.472038 -0.237054 -0.394522 0.567398 0.570289 -0.0532971 0.0435913 0.0906397 -0.306723 -0.0997364 0.00994316 -0.297375 -0.621781 -0.203067 -0.47898 0.403577 0.680514 -0.65226 -1.1106 -0.207804 0.287812 0.263007 -0.279137
A0214753 -0.310222 -0.106445 0.0342508 -0.24777 -0.0942589 0.35263 -0.0457627 -0.711854 -0.198243 -0.0902634 -0.155159 -0.0578592 -0.476912 0.441245 0.40334 -0.0636927 -0.310535 0.32282 -0.0275475 0.186859 0.247689 -0.52616 0.0522157 -0.309826 0.555951 -0.0662571 0.656128 -0.546201 0.26015 -0.759492 0.288244 0.137673 0.134257 -0.490357 0.548876 -0.319851 -0.0508206 -0.658847 -0.337289 -0.169329 0.326081 -0.0729933 0.128284 0.703137 -0.190306 -0.787318 0.478838 -0.147351 0.15516 0.26079
A3842428 -0.717665 -0.152967 0.489275 -0.418176 -0.0984692 -0.0286038 0.427399 -0.366503 0.0130425 0.307615 0.199062 0.281714 -0.273866 -0.119816 0.645911 0.29077 -0.446726 0.416937 -0.119802 -0.36772 0.391663 -0.909575 0.366288 -0.0499536 0.843729 -0.335897 0.377612 -0.651283 0.119528 -0.492255 0.509743 0.388017 -0.10195 -0.282358 0.161224 -0.567322 -0.384386 0.231135 0.0671054 -0.668938 0.0280641 -0.0868848 0.0407994 0.625763 -0.206293 -0.130645 0.338667 0.0362378 -0.165652 -0.296345
A1327630 -0.357718 0.270689 0.727144 -0.389227 -0.0830411 -0.16659 -0.424747 -0.557107 0.101271 0.14956 0.595127 0.576897 -0.4655 0.0509648 0.177703 0.451278 -0.45931 0.377214 0.391566 -0.518081 0.129427 -0.91011 0.595859 0.022198 0.942365 0.104936 0.045649 -0.473461 -0.0189477 -0.257474 0.421425 0.442816 -0.101219 -0.0370893 0.247505 -0.32003 -0.175327 -0.240035 -0.0520297 -0.11935 0.137661 -0.36775 0.815723 0.990249 -0.730477 -0.788864 0.360429 -0.230245 0.102866 0.310618
A0235910 -0.451631 0.314053 0.181186 -0.627861 0.0934983 -0.27201 0.147878 -0.633144 -0.468241 0.203242 0.319959 0.469225 -0.429722 0.454608 0.211167 0.487954 -0.125146 0.593657 -0.140089 -0.322939 0.409036 -1.15711 0.378406 0.241934 0.770447 -0.137993 -0.0359893 -0.707422 -0.475268 -0.680847 0.235505 0.795803 -0.0879472 0.379289 0.396494 -0.396263 -0.16016 -0.00920162 -0.297077 -0.475336 0.214766 -0.462738 0.252032 0.533795 -0.21701 -0.743017 0.401778 0.0299089 0.244572 -0.0184693
A16479975 0.0169025 -0.112185 0.910788 -0.0412585 -0.32609 -0.306544 0.177185 -0.576894 0.112005 -0.261685 -0.276031 0.14737 -0.707576 0.263027 -0.133903 0.11981 -0.487542 0.329658 -0.25538 -0.645548 0.48462 -0.988446 0.266404 0.0694635 0.995349 -0.0585472 -0.0597217 -0.32615 0.197423 -0.42082 0.684125 0.412181 0.0856753 -0.143093 0.400967 0.0198298 -0.0698847 -0.192945 0.261764 -0.252565 0.0574934 -0.190602 0.0532362 0.646629 0.10819 -0.719262 0.334307 -0.037427 0.252691 0.208527
A24307387 0.2199 -0.189678 0.722171 -0.349413 -0.411096 -0.111173 -0.621219 -0.171732 -0.126522 -0.0316875 -0.372034 0.240378 -0.518058 0.434841 0.0729423 0.633125 -0.584214 0.0374619 -0.0962229 -0.649702 -0.0547522 -0.898218 0.449353 -0.107287 1.0239 0.135967 0.152622 -0.709754 -0.146685 -1.00509 0.328 0.421917 0.0671353 -0.262359 0.297575 0.0262427 -0.267191 -0.451545 -0.164555 -0.440405 0.0225591 -0.164423 -0.14611 0.357803 0.163831 -0.74594 0.334581 0.0803783 0.204814 -0.0978814
A1349745 -0.309395 0.144868 0.49292 -0.182269 0.0891789 0.0626109 0.0928932 -0.35069 0.204601 -0.30342 -0.0431933 -0.0203969 -0.368423 0.278085 0.518449 0.52569 -1.20756 0.684319 0.149788 -0.219397 0.169619 -0.74343 0.445547 -0.0922671 0.901046 -0.350581 -0.141117 -0.696296 -0.0142446 -0.672996 0.779339 0.414132 0.114122 -0.0647616 0.30432 -0.433234 -0.530052 -0.528172 0.0455015 0.0582279 0.22784 -0.0681707 -0.0248254 0.784375 -0.219692 -0.520655 -0.123196 0.098133 0.0605082 -0.0128536
A2331002 0.156046 0.0956943 0.379132 0.0237163 -0.101685 0.475645 0.20155 -0.228966 -0.110821 0.0658835 0.159644 0.0638089 -0.303409 0.133041 0.226791 0.340581 -0.194236 0.117061 -0.0173412 -0.46134 -0.0564611 0.137519 0.0186457 -0.023074 0.133037 -0.325173 -0.192474 -0.0903459 0.0164484 -0.224986 0.310903 0.239319 0.0483494 -0.541882 -0.333552 0.0274762 -0.0724582 -0.344644 -0.0696623 -0.00304144 0.0778463 0.373514 -0.924312 0.419239 -0.744143 -0.113568 -0.0417022 -0.267633 0.139826 -0.174228
A0633627 -0.401364 0.169623 0.364592 -0.180891 0.082782 -0.0985608 -0.378991 -0.694724 0.22315 0.0301204 -0.212245 0.0229295 -0.520849 0.0895229 0.272145 0.359766 -0.599353 0.195134 0.124852 -0.573015 0.291806 -0.483292 0.0405319 -0.0395154 0.920826 -0.0416095 0.125588 -0.594326 -0.333521 -0.736134 0.73646 0.114114 0.132206 -0.0841876 0.59509 -0.477401 -0.570286 -0.243875 -0.323231 -0.0597238 0.267183 0.102998 -0.00184315 0.523449 -0.309944 -0.371069 0.125353 -0.322596 0.256461 0.0418248
A0077924 -0.335916 0.10776 0.310862 -0.207321 -0.0367402 0.0478736 0.102751 -0.653235 -0.0020388 -0.0737187 0.137935 -0.0170343 -0.509864 0.391793 0.26446 0.000119315 -0.0734346 -0.0160495 -0.0495596 -0.584395 0.412332 -0.273375 0.0948146 -0.148749 0.854099 -0.275445 0.0522859 -0.0285622 -0.226083 -0.365533 0.774549 0.0337795 0.139066 -0.0887071 -0.138755 -0.636402 0.0124396 -0.2859 -0.121817 -0.315584 0.19004 0.139455 -0.299986 0.175909 -0.273313 -0.379281 -0.0448717 -0.00450713 0.191076 -0.0256689
A17002117 -0.817567 0.391361 0.582092 -0.440489 -0.445192 0.060516 -0.0943696 -0.565155 -0.0268135 -0.17679 -0.242308 0.120229 -0.556258 0.0803713 0.38273 0.424476 -0.450222 0.10164 -0.0963068 -0.14941 0.106912 -0.975291 0.564095 -0.136611 0.791161 -0.289701 0.40901 -0.531725 0.0488719 -0.695588 0.254865 0.579032 -0.0185223 -0.176476 0.159764 -0.294849 -0.109715 -0.0172655 -0.443841 -0.491275 -0.16779 -0.544152 0.0750011 0.238388 -0.588143 -0.962974 0.629704 0.28739 -0.146953 -0.0925077
A2049673 -0.436284 0.126036 0.670042 0.0730301 -0.463069 -0.364834 0.291796 -0.807701 0.0178781 0.0469706 -0.267855 0.712732 -0.620784 0.256984 -0.0305236 0.567383 -0.709234 0.0917978 0.0775684 -0.477822 0.476209 -1.05077 0.418598 0.205583 0.657157 0.254959 -0.0388637 -0.00332203 0.229475 -0.599364 0.294172 0.459922 0.548727 -0.0621983 0.450763 0.0184493 -0.598065 -0.400511 -0.12589 0.133184 0.064562 -0.466345 0.0531918 0.603399 -0.504318 -1.06309 0.0742333 0.0187052 -0.0113668 0.0573358
A30117059 -0.580208 0.0084869 0.325343 -0.0713964 0.00795294 -0.0995047 -0.0162582 -0.611919 -0.226773 0.49989 0.046868 -0.0542203 -0.795778 0.3362 0.632 0.0743238 -0.530181 0.745961 -0.045338 -0.136355 0.299534 -1.27801 0.426049 -0.339382 1.02319 -0.0584035 0.0986363 -0.7785 -0.38909 -0.422928 0.439802 0.578083 0.322264 -0.303657 -0.0921719 -0.327938 0.0515148 -0.0060682 -0.56492 -0.170953 0.0811874 -0.0688547 0.0648498 0.699047 -0.447633 -0.470708 0.0127587 0.0740354 0.0375473 0.374659
A0374789 -0.00678212 -0.113065 0.334065 0.115378 -0.0554146 0.17566 -0.157926 -0.170441 -0.13831 0.234413 -0.466683 0.0558885 -0.314921 -0.0361839 -0.444824 0.0781202 0.0394802 0.284226 0.244052 -0.83822 0.443189 -0.40202 0.0567051 0.263355 0.609593 -0.281448 0.0790697 -0.497518 0.200438 -0.587079 0.152162 0.129745 -0.128718 -0.384056 -0.193346 -0.0162583 0.309378 -0.210967 -0.0596734 0.0574416 -0.188767 -0.187706 0.271467 0.244048 -0.647443 -0.0107908 0.494958 0.445857 0.361921 0.0256128
A18901140 -0.415444 0.282689 0.340118 -0.143702 -0.15248 0.00936444 -0.442104 -0.451076 0.365006 0.0270183 -0.419624 0.348552 -0.648526 0.180589 0.397629 0.186293 -0.716463 0.359795 0.18722 -0.540136 0.384447 -0.500285 -0.0663885 0.00866343 1.11311 0.0174255 -0.0743998 -0.601907 0.00106144 -0.84756 0.533148 0.287032 -0.0558958 -0.156744 0.435403 -0.201958 -0.377567 -0.305911 -0.00752855 -0.0515048 0.263818 0.00343416 0.291184 0.321223 -0.177285 -0.223271 0.321608 0.0182731 -0.0370622 0.0438051
A10908835 -0.20785 0.0781782 0.374748 -0.0722714 -0.256279 0.492436 -0.276364 0.0945116 -0.128276 0.208525 -0.180272 0.233125 -0.239109 0.221111 0.221683 0.228941 -0.261055 0.182537 -0.0112526 -0.538853 0.151817 -0.0803405 0.354906 -0.383596 -0.0485698 -0.296681 0.0977948 0.0841107 -0.0219426 -0.455534 0.29563 0.230086 -0.13412 -0.133095 -0.206096 -0.0474038 -0.389679 -0.35217 0.125261 0.0200542 0.0647175 0.364712 -0.592149 0.369272 -0.284302 -0.385213 0.0710603 -0.31722 -0.105725 -0.000659608
A29481544 0.106948 0.130634 0.318889 -0.264443 -0.0756788 0.128088 0.15908 -0.407546 0.0473413 -0.111759 0.317687 0.292821 -0.37859 0.226664 0.113473 0.430319 0.0627552 0.349156 -0.230018 -0.280703 0.07987 -0.585665 -0.129524 0.235862 0.69188 -0.223277 0.398013 -0.263526 0.0838474 -0.484551 0.548878 -0.0748109 -0.0655296 -0.172003 0.202688 -0.183442 -0.0978352 -0.369795 -0.348811 -0.32125 -0.0933879 -0.0403081 -0.248662 0.338481 -0.273832 -0.504619 0.41771 0.360295 0.157942 -0.0604159
A0233495 0.219409 0.158805 0.108931 -0.0451193 0.119475 0.114516 0.112483 -0.112663 0.154527 -0.134796 -0.0473056 0.694917 -0.607619 0.324195 0.384024 0.522296 -0.176002 -0.00610426 -0.166732 -0.137223 0.581286 -0.816253 0.0130647 0.173969 0.41048 0.0255113 0.0370516 -0.436742 -0.21962 -0.413709 0.355952 0.406288 0.0784737 -0.120661 -0.145017 -0.207657 -0.0508094 -0.236333 -0.172519 -0.375987 0.112719 -0.372719 -0.512704 0.100159 -0.320772 -0.502173 -0.0666216 -0.201196 0.104572 0.216246
A2049674 -0.383772 0.335346 0.879266 -0.0456587 0.355649 -0.125857 0.394657 -0.578974 -0.0613712 0.022557 -0.147968 0.475411 -0.405565 -0.110105 -0.0971419 0.378486 -0.153929 0.0945867 -0.41689 -0.749235 0.234359 -0.316381 0.515574 0.0672346 0.435387 -0.34804 0.133828 -0.490386 -0.211954 -0.483823 0.378844 0.291439 0.0125984 -0.0854688 0.254756 -0.363568 -0.324444 -0.375739 -0.0106381 -0.271774 0.107689 0.305895 0.0422671 0.726255 -0.409448 -0.563756 0.461489 0.235292 0.0531288 0.241337
A0159732 -0.424238 -0.028943 0.317432 -0.166702 -0.0947433 0.0418226 -0.153826 -0.542189 -0.157749 0.0243448 0.31533 0.160851 -0.599483 0.156933 0.109054 0.0836564 -0.737229 0.0688967 -0.165408 -0.5857 0.408361 -0.933914 0.740946 -0.0359588 0.835549 0.0528241 0.23761 -0.258037 0.268297 -0.373668 0.83479 0.386885 -0.175604 0.154987 0.130995 -0.222287 -0.0680206 -0.266288 -0.378809 -0.10271 -0.213708 -0.523594 0.604841 0.688564 -0.869963 -0.369985 0.327322 -0.163162 0.0953293 -0.19928
A0825698 -0.32228 0.3802 -0.0499423 -0.70054 -0.244521 -0.266842 -0.0312716 -0.448734 0.0205229 0.0784762 -0.288483 0.0892676 -0.603306 0.450294 0.131626 0.233922 -0.438333 0.100013 -0.0578061 -0.375023 0.282863 -0.831777 0.0136275 0.500853 0.926611 0.295015 0.429716 -0.306056 -0.0736042 -0.812277 0.654291 0.88512 -0.0279557 0.0875652 0.413792 -0.177165 -0.56186 -0.128317 0.140102 -0.641739 0.142481 -0.355945 0.538997 0.705187 -0.532102 -0.262879 0.128062 -0.385226 -0.0113237 -0.0552477
A0143379 -0.227971 0.149349 0.529757 -0.149277 -0.241797 0.03546 -0.427798 -0.112305 -0.320438 0.238364 -0.123289 0.250315 -0.570434 0.586397 0.0370328 0.210331 -0.106645 0.498805 0.0531307 -0.311164 0.393774 -0.894437 -0.202785 -0.00210313 0.754411 -0.0351912 0.000162529 -0.23248 -0.22384 -0.570877 0.40163 0.253678 0.0149539 -0.228119 0.376005 -0.503366 -0.211515 0.244174 -0.0944726 -0.376895 -0.16278 0.0114943 -0.170672 0.582439 -0.710054 -0.630479 0.266451 0.171563 0.165449 0.0882159
A27197824 -0.48357 0.232352 0.0128756 -0.332269 0.138705 -0.177554 -0.0730486 -0.829511 -0.326156 0.309645 0.348099 0.0353197 -0.706332 0.157515 0.306137 -0.148972 -0.368366 -0.11015 -0.253813 -0.298413 0.0906021 -0.940162 0.152373 0.320482 0.755938 0.218346 0.456692 -0.483237 -0.426059 -0.566743 0.553419 0.673599 0.327227 -0.31897 0.484704 -0.781043 -0.433756 -0.141073 0.183882 -0.491271 0.0282179 -0.341944 0.433303 0.712991 -0.801176 -0.336212 -0.131578 -0.180485 0.212082 -0.0971639
A17400028 -0.340099 -0.111796 0.208909 0.217011 0.0315274 0.0848955 0.449767 -0.66379 0.114806 0.0701863 -0.379706 0.00682534 -0.593994 0.0649696 -0.119269 0.095403 -0.151713 0.230272 -0.200876 -0.934457 0.212766 0.0340693 0.0691257 0.11725 0.497156 -0.243852 -0.0580877 -0.178815 -0.237565 -0.1491 0.446131 0.253841 -0.0587363 -0.331959 0.0747901 -0.303867 -0.40468 -0.421292 -0.0916718 -0.27932 0.215714 0.0623315 -0.101954 0.399906 -0.426098 -0.264556 0.185518 -0.123886 -0.0977396 0.354837
A28390207 -0.86867 -0.0186087 0.302374 -0.031278 -0.372997 0.27449 0.131687 -0.57169 -0.0570288 0.209738 0.119957 0.409401 -0.562999 -0.192896 0.100697 0.506004 -0.109546 0.415933 -0.144239 -0.0909097 0.141014 -0.774135 0.248017 0.0606301 0.765312 -0.0562398 -0.0555409 -0.170175 -0.0480018 -0.551757 0.622774 0.206867 -0.0408396 -0.237913 0.315802 -0.342503 -0.442011 -0.4211 -0.225116 -0.385077 0.424811 -0.592914 -0.0164388 0.57906 -0.429153 -0.519575 0.066224 -0.385701 -0.293276 0.243856
A12093264 -0.618903 -0.119921 0.737607 -0.544344 -0.13819 -0.163398 -0.0784739 -0.754477 -0.391189 -0.0086312 0.249014 0.058377 -0.570944 0.364344 0.413247 0.264157 -0.127674 0.961598 -0.0196314 -0.608577 0.692436 -0.986664 0.48651 -0.110653 0.82418 0.0636954 0.182542 -0.33734 -0.278348 -0.533283 0.0491071 0.734041 0.504209 0.0922676 0.35168 0.0191193 -0.516999 0.0241515 0.00431571 -0.480092 0.0210814 -0.494887 0.433165 0.720099 -0.255066 -0.988837 0.174645 0.314625 0.154933 0.274622
A22791523 -0.253037 0.031446 0.346453 -0.164523 -0.256479 0.316344 0.283992 -0.366951 -0.0222436 0.246391 -0.188524 0.695052 -0.37653 0.28855 -0.03195 -0.171187 -0.642206 0.362685 -0.0276979 -0.477016 0.454873 -0.486606 -0.114035 -0.198584 0.607841 -0.23546 -0.184324 -0.359746 -0.0256224 -0.296413 0.0861942 0.495018 -0.173084 -0.454168 -0.160734 -0.580686 -0.415072 -0.205069 -0.0642421 -0.377087 0.493423 0.133701 0.128021 0.208367 -0.503296 -0.434584 0.086115 -0.0715849 -0.00253495 0.375276
A17001869 -0.282214 -0.0580897 0.184066 -0.3805 0.116713 0.0595418 0.0683906 -0.649887 0.208922 0.11867 -0.0852447 0.261739 -0.395169 0.0563917 0.554752 0.168468 -0.704017 0.195919 -0.107213 -0.221876 -0.00648868 -0.880538 0.358773 -0.132794 1.06869 -0.490142 0.347492 -0.799358 0.130381 -0.531766 0.136902 0.260198 0.152661 -0.110738 -0.0260547 -0.0105513 -0.238338 -0.274414 0.075632 -0.495941 0.162434 -0.0845991 -0.0888725 0.718461 -0.456443 -0.619081 0.0779533 0.30909 0.0667021 0.179949
A20042298 -0.327946 0.34464 0.50534 0.0281708 -0.401432 -0.172985 -0.157102 -0.421306 -0.0664087 0.047596 -0.412572 0.317068 -0.400636 0.442844 0.0190934 0.3439 -0.249663 0.541289 -0.236859 -0.730373 -0.000133381 -0.376406 -0.151145 0.17197 0.772111 -0.227239 0.317487 -0.18499 0.115071 -0.691753 0.25362 0.0506383 0.202459 -0.329499 0.440906 0.0877289 -0.123496 -0.0372665 0.421425 -0.537109 0.142267 -0.145164 0.0100175 0.774265 -0.17429 -0.361043 0.211578 0.0243309 -0.108932 -0.0700292
A0174613 -0.107059 0.00267058 0.575694 -0.414416 -0.253711 0.292739 -0.177116 -0.309514 0.00677417 0.203144 0.142437 0.330575 -0.666598 0.10668 -0.0199602 -0.220615 -0.237497 0.279482 0.0841013 -0.102549 0.365942 -0.862784 0.0330264 -0.457361 0.327754 0.307229 0.0814703 -0.446227 0.17344 -0.788589 0.481389 0.27271 0.287019 0.00714407 0.1843 -0.384895 -0.268241 0.0399831 0.0643632 -0.380642 -0.0143004 0.26403 -0.283388 0.514749 -0.753572 -0.785921 0.310739 -0.122344 0.137725 -0.224063
A12989634 0.160078 -0.10534 0.422378 0.13354 -0.243172 -0.117109 -0.206285 -0.940647 0.0420092 -0.116869 -0.184949 0.329898 -0.615676 0.101876 0.0677983 0.313686 -0.846376 -0.0765985 -0.0649983 -0.590071 0.503718 -0.74059 0.307481 0.0181287 0.860521 0.370452 0.401133 -0.418464 0.125509 -0.41111 0.751488 0.556472 0.386395 -0.0918897 0.287038 -0.130024 0.161623 -0.196839 -0.469968 -0.238133 0.0403366 -0.736426 0.0384171 0.65041 -0.568348 -0.8835 0.667975 -0.269219 -0.209135 -0.367221
A0161327 -0.0210794 0.394071 0.498682 -0.26779 -0.507351 0.0906703 -0.693887 -0.670527 0.357163 0.0826378 0.0182012 0.526832 -0.588774 -0.190194 -0.44197 0.422965 -0.500143 0.141424 -0.365049 -0.773407 -0.0233534 -1.02332 -0.0786526 -0.213904 0.958772 -0.0457922 0.137097 -0.743883 -0.172388 -0.528176 0.380855 0.365241 0.12949 -0.043018 0.503942 -0.727587 -0.532143 -0.00489296 -0.0208039 -0.105092 0.0660405 0.159289 0.105389 0.41758 -0.432922 -0.551351 0.232856 0.202513 -0.0149728 0.229566
A2785342 -0.257034 0.136423 0.629757 0.0185378 -0.105255 -0.132207 -0.0502366 -0.849133 0.234726 -0.163169 -0.315325 0.337177 -0.619496 0.0792283 -0.402982 0.179034 -0.806112 0.335589 -0.144532 -0.443656 0.280964 -0.799796 0.421225 0.160129 0.889113 -0.00996268 0.105258 -0.569327 0.0969888 -0.692142 0.364558 0.00591515 -0.00525731 0.0705569 0.1081 -0.340825 -0.0150041 -0.232603 -0.019012 -0.25589 0.0822897 -0.187816 0.0936325 0.662799 -0.251295 -0.892529 0.598204 0.193075 -0.172605 0.113133
A12074597 -0.83978 -0.197881 0.382022 -0.4492 -0.0440297 0.136343 0.10025 -0.484043 0.0816501 -0.125227 -0.000928808 0.0619478 -0.475773 0.245061 -0.115143 0.256872 -0.982932 0.772214 -0.607983 -0.143104 0.278454 -0.702911 0.485678 -0.473179 0.699503 -0.285129 0.580664 -0.741463 -0.123379 -0.26634 0.482182 0.536717 -0.40228 -0.135538 0.42525 -0.531131 -0.653171 -0.472248 0.124846 -0.318049 0.385073 -0.0407372 0.103559 0.451733 -0.625907 -0.673443 -0.154048 0.259977 0.25809 -0.141527
A6819250 -0.805038 0.0734073 0.491199 -0.39221 0.185249 -0.0782165 0.111645 -0.656542 -0.135984 -0.109824 0.224016 0.346662 -0.538922 0.168875 -0.129474 0.0579469 -0.653553 0.118537 -0.221176 -0.48987 0.42687 -0.974637 0.276265 -0.100772 0.76396 0.023089 -0.193596 -0.877392 0.0406982 -0.359125 0.117865 0.504413 -0.0301874 0.437227 0.507458 -0.332046 -0.826127 -0.378445 -0.160095 -0.255677 -0.03712 -0.252674 0.0498698 0.534713 -0.60044 -0.958797 -0.260664 0.0472967 0.362667 -0.266788
A2023904 -0.241793 -0.0179577 0.173411 0.271193 -0.297706 0.46892 0.112074 -0.111032 0.107577 0.27952 -0.141141 -0.10561 -0.478397 0.342945 0.248006 0.0684603 -0.0163298 0.243461 0.209921 -0.331762 -0.0132353 -0.153405 -0.160409 -0.156565 0.34602 -0.379295 0.301726 -0.141901 0.171285 -0.136487 0.349147 0.222312 0.103241 -0.48388 -0.443539 -0.0229398 0.132551 -0.1938 0.102152 0.160143 -0.166199 0.219247 -0.539801 0.254663 -0.16226 -0.0908247 0.48579 -0.257153 -0.218271 0.0673865
A1328269 -0.369373 0.432799 0.523658 -0.355235 -0.0914646 0.183916 -0.106972 -0.402709 0.390942 -0.224554 -0.122004 0.200724 -0.734159 0.156721 0.406913 0.517671 -0.371994 0.41154 0.253375 -0.231418 0.25641 -0.679377 0.123207 0.19689 0.600735 -0.307982 0.154082 -0.733606 0.137881 -0.968199 0.39557 0.464944 -0.093315 -0.240162 0.520468 -0.0496939 -0.637396 -0.519138 0.0754878 -0.329801 0.0876429 -0.0837261 0.165272 0.318001 -0.502523 -0.696495 -0.216104 0.0955558 0.221886 0.10917
A18903748 -0.437832 0.112996 0.31617 0.0958138 -0.440142 0.074277 0.478039 -0.582439 -0.148403 0.0450278 -0.138122 0.0285839 -0.615671 0.19878 -0.0814244 -0.0698589 -0.306791 0.514802 -0.258507 -0.397581 0.378412 -0.53533 -0.0451406 -0.132327 0.712017 -0.145809 -0.0805276 -0.148774 -0.263242 -0.209994 0.756756 0.200408 -0.117456 -0.272193 -0.0924518 -0.606919 0.0198546 -0.159041 -0.203531 -0.570558 0.233257 0.0354884 -0.0767271 0.674258 -0.367732 -0.57497 0.156615 -0.275173 0.107842 0.2755
A0160034 -0.0689542 0.394332 0.090854 -0.133326 -0.185788 0.0990168 -0.296064 -0.719676 0.201712 -0.116494 -0.126373 0.0578391 -0.513473 -0.0935903 0.534499 -0.022188 -0.915169 0.0517405 -0.103533 -0.584373 -0.100534 -1.03289 0.41047 -0.0342238 1.15209 -0.251871 -0.0619295 -0.702762 -0.177088 -0.358983 0.254383 0.191851 -0.117182 0.145998 -0.0412558 -0.313763 -0.279007 -0.379335 -0.00904141 -0.0831257 -0.0532716 -0.241855 -0.232902 0.704065 -0.450255 -0.848856 0.179508 0.108665 0.0594218 0.0795655
A2046747 0.166134 -0.203754 0.177124 0.27138 0.131883 0.0893902 0.181477 -0.138365 0.157736 -0.0154514 -0.255312 -0.271771 -0.60554 0.185006 -0.016795 0.240755 0.142285 0.0278961 -0.337115 -0.417326 -0.123924 -0.130931 0.0214477 0.270286 0.300955 -0.299988 0.216499 -0.427814 0.28229 -0.31941 0.179721 0.0852671 0.173745 -0.461765 -0.462478 0.125202 -0.0642304 -0.374702 0.225944 0.059092 -0.198495 0.154845 -0.789429 0.10574 -0.172015 0.0722012 0.498684 0.221024 0.286309 0.099327
A10913475 -0.0772232 -0.130945 0.219119 -0.139499 -0.0176857 0.426442 0.0760103 -0.100689 -0.0441141 -0.13233 -0.1964 0.152096 -0.36376 -0.195551 0.119046 0.0551133 -0.00297019 0.0350431 -0.296384 -0.235354 0.0844817 0.0885327 -0.274008 -0.087251 0.417337 -0.055402 -0.146161 -0.533944 0.312849 0.19066 0.0399881 0.443209 0.350816 -0.464062 -0.53785 -0.0417315 0.13875 -0.356266 0.26083 0.150616 0.168676 0.0287029 -0.652528 -0.084326 -0.115247 -0.20685 0.388495 -0.357903 -0.0801209 -0.159895
A24836252 -0.115232 0.0959145 0.404773 0.0760196 -0.627016 -0.270095 0.259916 -0.297925 -0.143142 0.00525795 -0.103411 0.263995 -0.26469 0.550317 0.0772847 0.167272 -0.793439 0.316442 -0.333887 -0.504393 -0.0410975 -1.23775 0.179028 -0.0598432 0.977749 -0.180634 -0.0813276 -0.713007 -0.153463 -0.610855 0.321651 0.708363 -0.0498281 -0.0954828 0.250766 -0.276832 -0.0266709 -0.368484 0.190699 -0.162323 -0.123035 -0.395265 0.149319 0.648521 -0.287093 -0.734034 0.432297 0.265429 0.51666 -0.106083
A17397029 0.0446021 0.208062 0.293396 -0.131606 -0.343333 0.0991489 0.0541157 -0.793157 0.0821482 0.176739 0.304 0.416217 -0.618566 0.353423 0.134026 -0.0427424 -0.250992 0.385209 0.324927 -0.643653 0.336806 -0.583735 0.107608 -0.369271 0.565361 0.0194899 -0.0531442 -0.490838 0.416307 -0.751338 0.316698 0.289129 0.516969 -0.326068 0.28645 -0.482776 -0.1419 -0.307976 -0.194073 -0.571741 0.203753 0.266048 0.41331 0.164647 -0.479808 -0.799661 0.730121 0.207355 -0.198953 0.002764
A0175610 -0.154959 0.179889 0.612119 -0.0729047 -0.185108 -0.255475 0.134579 -0.351768 0.302969 -0.0232726 0.276459 0.268718 -0.599207 0.36511 0.177164 0.171727 -0.546268 -0.116399 0.241883 -0.415015 0.119951 -0.61633 0.240909 -0.199002 0.638101 -0.176477 0.324438 -0.705097 0.138456 -0.638105 0.157045 -0.0499527 -0.252764 -0.391438 -0.0435789 -0.438406 -0.15241 -0.119618 0.280754 -0.0751018 0.123551 0.0296785 -0.187484 0.204451 -0.238785 -0.0103366 0.285381 -0.0993869 -0.117287 0.075117
A1935167 0.0506128 0.0725916 0.0716293 0.0597995 0.00597801 0.1587 0.152334 -0.011242 -0.0455204 0.522595 -0.298986 -0.0829858 -0.458705 -0.148333 -0.0352119 0.0652908 0.331315 -0.16682 -0.480495 -0.451052 0.0442054 0.483964 -0.0788865 0.177791 0.119605 -0.30149 0.143558 -0.420866 -0.130606 -0.650192 0.252111 0.343867 0.245166 -0.385795 -0.290103 -0.159412 -0.212643 -0.340168 0.0262667 -0.223695 -0.349332 0.195878 -0.708755 0.419451 -0.535572 -0.00105726 -0.075416 -0.0178698 0.0675257 0.114167
A1648639 0.387282 0.174152 0.323018 -0.165068 0.00736161 0.148662 -0.0411797 0.106312 0.0818229 0.359832 -0.585561 0.458679 -0.0829165 0.0157507 -0.219351 -0.0220645 -0.238557 0.363081 0.232759 -0.584046 0.166318 -0.041984 -0.212919 -0.113027 0.250254 -0.0468009 0.126021 -0.551823 0.00781161 -0.580404 0.219912 0.354225 0.0931827 -0.596924 -0.0766013 -0.346078 -0.130817 -0.562482 0.117106 -0.173844 -0.159062 0.146375 -0.254902 0.130118 -0.18209 -0.480729 0.207097 0.1005 0.246651 -0.292689
A1339075 -0.665756 0.573275 0.547117 -0.411234 -0.301673 0.130185 -0.0411217 -0.779401 -0.21551 -0.432346 -0.0576017 0.447103 -0.461017 0.288931 0.356651 0.224277 -0.377518 0.414384 -0.00746185 -0.258241 -0.0565566 -1.01276 0.518979 -0.119351 0.683677 -0.242552 0.0915081 -0.284371 -0.206631 -0.495857 0.266108 0.711352 0.0775674 -0.282468 0.153974 -0.454228 -0.0326529 0.0637079 -0.166251 -0.460224 -0.287205 -0.31214 0.381337 0.632907 -0.40006 -1.00062 0.361096 0.584351 -0.115267 0.0195273
A0230093 -0.4525 0.267259 0.489171 0.00103046 -0.19692 0.0486682 -0.261903 -0.818941 0.162736 0.206558 0.14142 0.611451 -0.585444 0.0632683 0.340148 0.144761 -0.756359 0.318637 -0.0339184 -0.647131 0.382856 -1.05852 -0.0497147 -0.24373 1.09762 0.0529213 0.159531 -0.417851 -0.727214 -0.604898 0.329662 0.174451 0.39551 -0.222057 0.133661 -0.477336 -0.109322 -0.144834 -0.352527 -0.0818358 -0.100537 -0.0152634 0.215441 0.57086 -0.382202 -0.568595 0.169493 0.0473575 0.233512 -0.110862
A27810685 -0.17103 0.329276 -0.180754 0.0963927 -0.0860188 0.371915 0.341367 -0.433399 -0.0838682 0.0551682 -0.382297 -0.299484 -0.337371 -0.291444 0.0929282 -0.142443 0.26741 0.0615403 0.282539 -0.69155 -0.000127673 0.0113841 0.0375028 -0.184903 0.244401 -0.362125 -0.0164875 -0.192437 0.088878 0.132423 0.492516 0.608218 0.413737 -0.395106 -0.149821 -0.347697 0.203074 -0.106043 0.204158 -0.0657205 0.0173732 -0.0480676 -0.24222 0.417012 -0.185129 -0.0467731 0.256907 -0.488726 -0.156664 0.0158141
A16481082 -0.0232795 0.161682 0.360216 -0.286444 -0.449232 -0.256646 0.0522427 -0.457503 0.0654276 -0.0451385 -0.0573196 0.0435624 -0.670667 0.235274 -0.384717 -0.113225 -0.686185 0.0397292 0.246889 -0.645344 0.377207 -0.795386 0.360181 -0.106928 0.696548 0.0421091 -0.0690536 -0.492946 -0.0583164 -0.597453 0.971091 0.669921 0.426375 0.037454 0.351202 -0.00185144 -0.535623 -0.179502 -0.115522 -0.313932 -0.17828 -0.220417 0.14015 0.672013 -0.369988 -0.87858 -0.0574673 0.111082 0.17639 0.13642
A20044300 -0.492324 0.486068 0.193891 0.278205 -0.12794 0.311299 -0.167535 -0.574097 -0.421658 -0.0104332 -0.21608 0.331008 -0.605181 0.272742 0.0555016 0.263639 -0.468282 0.638611 0.00363366 -0.629351 0.209004 -1.00993 0.210287 -0.0762724 0.892499 0.119362 0.630322 -0.487113 -0.66229 -0.8109 -0.0915281 0.2513 0.266281 -0.413272 0.173759 0.13195 -0.0399208 0.0210192 -0.268731 -0.211333 -0.109457 -0.227699 0.0544232 1.19803 -0.337327 -0.437946 -0.170955 0.0624117 0.0176242 0.106817
A17402857 -0.61961 0.0575043 0.56252 -0.485433 0.121042 -0.450556 -0.165329 -0.614903 0.398712 0.105974 -0.123442 0.14679 -0.336783 0.183895 0.189331 0.321293 -1.00457 0.612419 -0.261659 -0.219248 0.0338055 -0.389728 0.340662 0.00789269 0.725271 -0.18393 0.461593 -0.449821 -0.271039 -0.287318 0.644791 0.234019 -0.237079 0.0170355 0.211378 -0.299749 -0.251201 -0.504201 0.0996726 -0.434364 0.214556 -0.391147 0.146548 0.459907 -0.507333 -0.524678 -0.0831657 0.151758 0.411417 -0.235157
A2296892 -0.240771 -0.191853 0.389813 0.0100008 -0.0881703 -0.178178 -0.0412661 -0.313051 0.180391 0.296392 0.0310082 0.042199 -0.339902 0.308027 0.177999 -0.057122 -0.415298 -0.111938 -0.0676346 -0.626458 0.479441 -0.358357 0.211186 -0.269618 0.442362 -0.531235 0.0207271 -0.712735 0.122768 -0.783564 0.234951 0.253995 -0.0896696 -0.248694 -0.0670938 -0.284551 -0.255025 -0.22853 0.0959771 -0.254004 -0.177135 -0.0999421 0.115975 0.588511 -0.592356 -0.315833 0.0939984 -0.0123554 0.144692 0.0526456
A1912120 -0.924154 0.199304 0.115266 -0.186671 -0.305781 -0.25834 0.0313782 -0.761004 -0.0279053 0.0940701 -0.15577 0.47091 -0.342137 0.174539 -0.0615531 0.818384 -0.239704 0.534247 -0.253093 -0.471884 -0.234741 -0.428938 0.245802 0.0533635 0.844076 0.180813 0.284023 -0.136969 -0.183731 -0.57509 0.508076 0.363968 0.186003 -0.0123034 0.246042 -0.0799649 -0.319496 -0.228792 0.256665 -0.698214 0.170094 -0.390337 0.41938 0.647607 -0.301914 -0.210821 0.0539595 -0.12773 -0.195967 -0.148194
A1351553 -0.592102 -0.252043 0.401471 -0.428723 0.21094 0.0758384 -0.0553715 -0.273096 0.0572539 0.157515 -0.0869031 0.412906 -0.38038 0.16874 -0.176815 0.456815 -0.504594 0.762676 0.0918523 -0.321463 0.421113 -0.89178 0.308565 -0.41583 0.534221 -0.0427139 0.932624 -0.437118 -0.677366 -0.470927 0.144204 0.316329 -0.0229723 -0.35789 0.452402 -0.505144 -0.245642 -0.451174 -0.0694741 0.070002 0.162021 0.0584493 0.09033 0.454689 -0.539972 -0.616207 -0.12764 0.198691 0.103039 -0.106564
A24122733 -0.85687 0.0120638 0.297905 -0.110499 -0.333602 0.213137 -0.103347 -0.338685 -0.476166 -0.0535719 0.425516 0.670497 -0.611643 0.315375 0.0732959 0.308533 -0.482398 0.277806 -0.119024 -0.275083 0.483107 -0.909359 0.629054 -0.13188 1.51674 0.406898 0.587418 -0.641238 0.0379549 -0.937923 0.592837 0.0208016 -0.0861568 0.567937 0.390158 -0.0452285 -0.34112 0.220766 -0.350177 -0.439565 -0.400502 0.011237 0.761258 0.755977 -0.774239 -1.22572 0.154773 -0.0783209 -0.0821072 -0.330177
A13392061 -0.29681 0.20309 0.368259 -0.526888 -0.18323 0.102268 -0.0263318 -0.346378 0.0878945 -0.0999347 0.116576 0.487129 -0.110814 0.140859 -0.00305025 0.280683 -0.38906 0.11283 -0.190231 -0.0186007 0.261431 -0.948667 -0.289006 -0.0620527 0.597668 -0.393022 0.0997793 -0.127562 -0.28252 -0.530922 0.518097 0.0977803 0.15278 -0.241683 0.102809 -0.735871 -0.25892 -0.0291279 -0.0387954 -0.0820521 0.0539712 -0.210711 -0.0692546 0.473392 -0.401148 -0.350537 -0.0473138 -0.192348 0.0841398 0.152837
A2045746 -0.363257 -0.0387488 0.151805 -0.408265 -0.0475695 -0.208556 -0.109027 -0.339284 -0.0551269 -0.0076191 0.123059 0.535437 -0.274302 0.414377 0.320611 0.414806 -0.100396 0.164024 -0.485565 -0.452079 0.265667 -0.733203 0.0380104 -0.0217398 0.972665 -0.16304 0.0484927 -0.235183 -0.167673 -0.42443 0.429842 0.0548115 -0.276863 -0.00985995 0.10536 -0.203272 -0.339036 -0.372591 0.0450081 -0.630128 -0.0406606 0.0317799 0.378346 0.25091 -0.50021 -0.584855 0.278512 0.264833 0.316525 0.0841271
A2331000 -0.652259 0.576877 0.571329 -0.478855 -0.146492 -0.248682 -0.0390685 -0.643967 -0.211667 0.121133 -0.286215 -0.0543257 -0.479698 -0.235739 0.214589 0.380368 -0.298654 0.649137 -0.340551 -0.0827942 0.529198 -1.19069 0.359313 0.278485 1.24028 0.232508 0.445289 -0.253722 0.133546 -0.516173 0.293567 0.659259 -0.0845077 0.172873 0.231971 -0.544328 -0.637195 0.300749 -0.0650988 -0.19476 0.243117 -0.38699 0.359107 0.64676 -0.81644 -1.04868 0.43733 0.0635098 0.133955 0.489866
A1007943 -0.699365 -0.174446 0.124452 -0.128508 0.121491 -0.109598 -0.11527 -0.117345 -0.289408 -0.291032 -0.502843 0.392203 -0.99638 0.168542 -0.0937024 0.321788 -0.813443 0.525386 -0.319619 -0.527253 0.265277 -1.06616 0.471446 -0.118748 0.263199 0.179967 0.202593 -1.26107 -0.0790622 -0.921345 0.182565 0.436837 0.193442 0.00200992 0.65841 -0.510642 -0.375344 -0.423249 0.222833 -0.470285 0.0135345 -0.440898 0.915626 0.618797 -0.555425 -0.998097 0.845798 0.0883324 -0.35855 0.294138
A0303331 -0.20096 0.0800345 0.344471 -0.241962 -0.0761636 -0.258753 -0.395556 -0.544484 -0.254289 0.175445 0.0299062 -0.0476781 -0.45879 0.468847 0.341378 0.320661 -0.58828 -0.14746 0.115973 -0.273043 0.101731 -0.693939 0.564737 -0.135797 0.835283 -0.0673856 0.391942 -0.53012 -0.0325292 -0.832805 0.631527 0.430286 0.0146666 -0.0514495 0.250941 -0.0819123 -0.213523 -0.16611 -0.544052 -0.273653 0.0406504 -0.673177 -0.02901 0.0502815 -0.285649 -0.415368 0.689211 -0.145987 -0.0731148 -0.164379
A1913246 -0.666128 -0.0415937 0.434974 -0.346969 0.0445455 0.0815479 0.095538 -0.437682 -0.0998138 0.327387 -0.0798981 0.424908 -0.640111 0.263507 -0.191372 0.35066 0.104205 0.552738 -0.160458 0.00091498 0.403602 -0.875573 0.0184458 -0.230195 0.495967 0.189742 0.0303608 -0.380057 -0.173466 -0.518674 0.342183 0.625373 0.210339 -0.360784 0.558839 -0.638196 -0.218763 0.0897507 0.294956 -0.244814 0.364117 0.176935 -0.290235 0.226662 -0.625282 -0.523952 0.230263 0.148266 0.106392 -0.351069
A1627244 -0.563489 0.292052 0.255401 -0.189048 0.140662 0.0866114 0.632479 -0.576932 -0.247622 0.235001 0.543705 0.184158 -0.941679 -0.206967 0.431666 0.0125555 -0.35128 0.292742 -0.299952 -0.506682 0.412318 -0.716014 0.512351 0.202725 0.458618 -0.33907 0.0583505 -0.174404 -0.0761928 -0.556353 0.573423 0.371291 0.141361 -0.110862 0.0932783 -0.77881 -0.116096 -0.299538 0.113434 -0.484383 0.185245 -0.31855 0.447241 0.417937 -0.709393 -0.228497 0.330989 0.0784193 0.009777 -0.0286814
A1327631 -0.276324 -0.0521421 0.496342 -0.273725 -0.500786 -0.161028 -0.326087 -0.728091 -0.111196 0.213658 0.283614 0.378006 -0.554744 0.188661 0.447174 0.227194 -0.478865 0.39671 0.0253532 -0.616212 0.265455 -0.498477 -0.119179 0.0780392 1.27472 -0.0378629 -0.476335 -0.677312 0.181896 -0.298839 0.28615 0.298783 0.234295 0.0629694 0.392281 -0.36589 -0.24486 -0.243122 0.0182827 -0.471593 0.0490406 -0.195766 0.0589613 0.634093 -0.533029 -0.887595 0.497909 0.0657325 -0.652244 0.0560589
A2403970 -0.292247 -0.0618568 0.316835 -0.712759 -0.205801 0.0803956 -0.086215 -0.499365 0.120628 -0.279945 -0.496269 -0.040281 -0.570966 0.132011 -0.173626 0.134727 -0.664536 -0.0284868 0.051209 -0.371837 0.195536 -0.834516 0.0752798 0.111975 0.74117 -0.0310748 0.185134 -0.578156 -0.176218 -1.22766 0.692538 0.373362 0.0572682 0.00813958 0.370915 -0.358121 -0.545957 -0.331981 -0.490534 0.00355725 -0.122834 0.0660439 0.264197 0.492294 -0.30651 -0.601071 0.306583 0.305103 0.20647 -0.0551315
A3840088 -0.397805 0.142603 0.397982 -0.572771 -0.136064 -0.0143472 -0.0360622 -0.63581 0.305541 -0.0835779 0.18838 -0.263643 -0.726989 0.315582 0.1617 0.67159 -0.452282 0.555724 -0.269643 -0.249395 0.662936 -1.07513 0.15951 -0.113042 0.71633 0.0735224 0.108924 -0.325172 -0.142719 -0.902432 0.0931198 0.473536 0.0170856 -0.400102 0.0674074 -0.0652166 -0.681895 -0.269447 -0.145921 -0.00574503 -0.504275 -0.192468 0.0534431 0.358649 -0.342293 -0.488539 0.196982 0.329165 -0.303563 0.191184
A24307394 -0.197988 0.128566 0.60127 0.00566935 0.292105 0.0410088 0.185124 -0.593749 0.100335 -0.206804 0.265717 0.177769 -0.822711 -0.071016 0.334775 0.0671219 -0.292791 0.403869 -0.659753 -0.378165 0.370001 -0.867745 0.332651 0.201311 0.669744 0.331689 0.292863 -0.385381 -0.183638 -0.652313 0.3491 0.32107 -0.239807 -0.398922 -0.0239635 -0.0319484 0.0442451 -0.157622 0.213227 -0.17177 0.023008 -0.142599 -0.208315 0.6651 -0.135343 -0.426077 0.3099 0.157664 0.205956 -0.0241105
A2404658 -0.079353 0.30141 0.161764 -0.510476 -0.160465 0.239889 -0.520315 -0.695044 0.0706743 -0.280028 -0.226678 0.63587 -0.550411 -0.230666 -0.204418 0.212735 -0.217624 0.0776533 -0.0743805 -0.73508 0.00500179 -1.05433 0.192982 0.0181835 0.72581 0.261178 0.0137334 -0.756842 -0.151716 -0.636593 0.443341 0.394742 -0.176216 0.191167 0.258139 -0.424403 -0.314748 -0.224352 -0.5324 -0.0380466 0.153058 0.280663 0.215904 0.479059 -0.451995 -0.784643 0.402541 0.325653 0.137278 -0.0185537
A6817339 0.015149 0.133155 0.202564 -0.0998224 -0.102475 0.482635 0.0218421 -0.418889 0.0818049 0.363062 0.207728 -0.201835 -0.539753 0.0436236 -0.479473 0.228807 -0.311614 0.73873 0.405346 -0.803208 0.573867 -0.516193 0.0692858 0.197954 0.633868 -0.405334 -0.173143 -0.276378 0.180275 -0.196125 0.382893 0.134859 -0.369954 -0.0173924 -0.0845698 -0.33139 -0.109654 -0.0986563 0.219175 0.025566 0.0932247 0.124393 -0.180665 0.293144 -0.697254 -0.0393632 0.295422 0.269567 -0.0821389 -0.046049
A13386328 -0.289153 -0.0755587 0.317586 -0.109355 -0.0409155 0.160202 -0.112365 -0.198018 0.107552 0.150376 -0.0144982 -0.11745 -0.51328 0.405485 0.11251 0.401426 -0.28786 0.19321 0.0539758 -0.493368 -0.00182292 0.0568703 0.21081 0.0144928 0.124675 -0.363401 -0.322175 -0.207954 0.051196 -0.5325 0.6678 0.0878018 -0.169562 -0.0422021 0.115899 -0.0186746 -0.557543 -0.440183 0.304913 -0.256212 -0.0792574 -0.0140556 -0.656721 0.231858 -0.42033 -0.157027 0.0015215 -0.117959 -0.21409 -0.128453
A2045006 -0.0274231 0.409671 0.516698 -0.134238 -0.392199 -0.364769 -0.0969597 -0.190458 -0.36037 0.0316975 -0.550271 0.0465625 -0.613055 0.391193 0.140883 0.177261 -0.515703 0.185932 -0.264081 -0.735754 -0.113476 -0.825365 -0.0351194 0.249898 1.01893 -0.178079 0.0170603 -0.626543 0.00103535 -0.663506 0.277176 0.358698 0.238956 -0.708338 0.591822 -0.230449 -0.166968 -0.429026 0.178476 -0.0384574 -0.0958411 -0.329791 -0.0256227 0.561495 -0.086598 0.00894096 0.15265 -0.0642484 -0.219732 0.00764736
A1937600 -0.996503 0.169332 0.400832 -0.300821 -0.0212086 0.1726 0.212013 -0.186251 -0.221515 -0.170832 -0.251224 0.245822 -0.498135 0.19353 0.144907 0.318618 -0.54469 0.290184 -0.307039 -0.467785 0.0808796 -0.943749 0.323525 -0.101151 0.786534 -0.204946 0.340961 -0.40603 -0.181131 -0.321866 0.492434 0.616762 0.241786 -0.227391 0.236333 -0.367442 -0.147502 0.054282 -0.63329 -0.325856 0.081936 -0.177059 0.258251 0.290138 -0.408396 -0.978946 -0.00195196 0.116423 0.275372 -0.053253
A27807713 -0.397629 -0.206317 0.507148 0.0635948 -0.311762 0.323218 0.210687 -0.273476 -0.140366 -0.100424 0.0368672 0.0314828 -0.288438 0.0199891 -0.0321151 0.328604 0.343073 0.0679913 -0.501735 -0.48652 0.199419 0.28915 0.0754921 -0.0568595 0.449629 -0.140466 -0.0389003 -0.1415 0.178635 -0.542433 0.355727 0.0725206 0.0498719 -0.308681 0.225075 -0.269968 -0.157021 -0.371852 0.25004 -0.246965 -0.0815797 0.0349703 -0.465021 0.241777 -0.171459 -0.249443 -0.0471062 -0.211281 0.123451 -0.272154
